digraph Tree {
node [shape=box, fontname="helvetica"] ;
edge [fontname="helvetica"] ;
0 [label="x[1] <= 42.5\ngini = 0.323\nsamples = 7500\nvalue = [5983, 1517]"] ;
1 [label="x[4] <= 2.5\ngini = 0.21\nsamples = 5361\nvalue = [4723, 638]"] ;
0 -> 1 [labeldistance=2.5, labelangle=45, headlabel="True"] ;
2 [label="x[4] <= 1.5\ngini = 0.186\nsamples = 5233\nvalue = [4690, 543]"] ;
1 -> 2 ;
3 [label="x[8] <= 0.5\ngini = 0.273\nsamples = 2587\nvalue = [2165, 422]"] ;
2 -> 3 ;
4 [label="x[3] <= 54704.59\ngini = 0.229\nsamples = 1952\nvalue = [1695, 257]"] ;
3 -> 4 ;
5 [label="x[1] <= 41.5\ngini = 0.376\nsamples = 451\nvalue = [338, 113]"] ;
4 -> 5 ;
6 [label="x[6] <= 0.5\ngini = 0.356\nsamples = 427\nvalue = [328, 99]"] ;
5 -> 6 ;
7 [label="x[1] <= 39.5\ngini = 0.416\nsamples = 220\nvalue = [155, 65]"] ;
6 -> 7 ;
8 [label="x[7] <= 197319.109\ngini = 0.388\nsamples = 190\nvalue = [140, 50]"] ;
7 -> 8 ;
9 [label="x[10] <= 0.5\ngini = 0.38\nsamples = 188\nvalue = [140.0, 48.0]"] ;
8 -> 9 ;
10 [label="x[0] <= 505.5\ngini = 0.444\nsamples = 90\nvalue = [60, 30]"] ;
9 -> 10 ;
11 [label="gini = 0.0\nsamples = 7\nvalue = [7, 0]"] ;
10 -> 11 ;
12 [label="x[0] <= 553.0\ngini = 0.462\nsamples = 83\nvalue = [53.0, 30.0]"] ;
10 -> 12 ;
13 [label="x[3] <= 40664.575\ngini = 0.32\nsamples = 10\nvalue = [2, 8]"] ;
12 -> 13 ;
14 [label="x[0] <= 544.5\ngini = 0.198\nsamples = 9\nvalue = [1, 8]"] ;
13 -> 14 ;
15 [label="gini = 0.0\nsamples = 6\nvalue = [0, 6]"] ;
14 -> 15 ;
16 [label="x[1] <= 35.5\ngini = 0.444\nsamples = 3\nvalue = [1, 2]"] ;
14 -> 16 ;
17 [label="gini = 0.0\nsamples = 1\nvalue = [1, 0]"] ;
16 -> 17 ;
18 [label="gini = 0.0\nsamples = 2\nvalue = [0, 2]"] ;
16 -> 18 ;
19 [label="gini = 0.0\nsamples = 1\nvalue = [1, 0]"] ;
13 -> 19 ;
20 [label="x[3] <= 35290.295\ngini = 0.421\nsamples = 73\nvalue = [51, 22]"] ;
12 -> 20 ;
21 [label="x[2] <= 8.5\ngini = 0.389\nsamples = 68\nvalue = [50, 18]"] ;
20 -> 21 ;
22 [label="x[2] <= 5.5\ngini = 0.335\nsamples = 61\nvalue = [48, 13]"] ;
21 -> 22 ;
23 [label="x[0] <= 689.5\ngini = 0.414\nsamples = 41\nvalue = [29, 12]"] ;
22 -> 23 ;
24 [label="x[1] <= 38.5\ngini = 0.227\nsamples = 23\nvalue = [20, 3]"] ;
23 -> 24 ;
25 [label="x[2] <= 3.5\ngini = 0.165\nsamples = 22\nvalue = [20, 2]"] ;
24 -> 25 ;
26 [label="gini = 0.0\nsamples = 14\nvalue = [14, 0]"] ;
25 -> 26 ;
27 [label="x[1] <= 34.0\ngini = 0.375\nsamples = 8\nvalue = [6, 2]"] ;
25 -> 27 ;
28 [label="x[7] <= 49910.052\ngini = 0.5\nsamples = 4\nvalue = [2, 2]"] ;
27 -> 28 ;
29 [label="gini = 0.0\nsamples = 1\nvalue = [1, 0]"] ;
28 -> 29 ;
30 [label="x[0] <= 637.5\ngini = 0.444\nsamples = 3\nvalue = [1, 2]"] ;
28 -> 30 ;
31 [label="gini = 0.0\nsamples = 2\nvalue = [0, 2]"] ;
30 -> 31 ;
32 [label="gini = 0.0\nsamples = 1\nvalue = [1, 0]"] ;
30 -> 32 ;
33 [label="gini = 0.0\nsamples = 4\nvalue = [4, 0]"] ;
27 -> 33 ;
34 [label="gini = 0.0\nsamples = 1\nvalue = [0, 1]"] ;
24 -> 34 ;
35 [label="x[0] <= 789.0\ngini = 0.5\nsamples = 18\nvalue = [9, 9]"] ;
23 -> 35 ;
36 [label="x[7] <= 24191.854\ngini = 0.48\nsamples = 15\nvalue = [6, 9]"] ;
35 -> 36 ;
37 [label="gini = 0.0\nsamples = 3\nvalue = [3, 0]"] ;
36 -> 37 ;
38 [label="x[7] <= 188550.695\ngini = 0.375\nsamples = 12\nvalue = [3, 9]"] ;
36 -> 38 ;
39 [label="x[7] <= 108745.703\ngini = 0.298\nsamples = 11\nvalue = [2, 9]"] ;
38 -> 39 ;
40 [label="x[7] <= 51843.609\ngini = 0.48\nsamples = 5\nvalue = [2, 3]"] ;
39 -> 40 ;
41 [label="gini = 0.0\nsamples = 3\nvalue = [0, 3]"] ;
40 -> 41 ;
42 [label="gini = 0.0\nsamples = 2\nvalue = [2, 0]"] ;
40 -> 42 ;
43 [label="gini = 0.0\nsamples = 6\nvalue = [0, 6]"] ;
39 -> 43 ;
44 [label="gini = 0.0\nsamples = 1\nvalue = [1, 0]"] ;
38 -> 44 ;
45 [label="gini = 0.0\nsamples = 3\nvalue = [3, 0]"] ;
35 -> 45 ;
46 [label="x[7] <= 4201.175\ngini = 0.095\nsamples = 20\nvalue = [19, 1]"] ;
22 -> 46 ;
47 [label="gini = 0.0\nsamples = 1\nvalue = [0, 1]"] ;
46 -> 47 ;
48 [label="gini = 0.0\nsamples = 19\nvalue = [19, 0]"] ;
46 -> 48 ;
49 [label="x[0] <= 749.5\ngini = 0.408\nsamples = 7\nvalue = [2, 5]"] ;
21 -> 49 ;
50 [label="x[0] <= 643.0\ngini = 0.278\nsamples = 6\nvalue = [1, 5]"] ;
49 -> 50 ;
51 [label="x[7] <= 83526.355\ngini = 0.5\nsamples = 2\nvalue = [1, 1]"] ;
50 -> 51 ;
52 [label="gini = 0.0\nsamples = 1\nvalue = [1, 0]"] ;
51 -> 52 ;
53 [label="gini = 0.0\nsamples = 1\nvalue = [0, 1]"] ;
51 -> 53 ;
54 [label="gini = 0.0\nsamples = 4\nvalue = [0, 4]"] ;
50 -> 54 ;
55 [label="gini = 0.0\nsamples = 1\nvalue = [1, 0]"] ;
49 -> 55 ;
56 [label="x[7] <= 155505.344\ngini = 0.32\nsamples = 5\nvalue = [1, 4]"] ;
20 -> 56 ;
57 [label="gini = 0.0\nsamples = 4\nvalue = [0, 4]"] ;
56 -> 57 ;
58 [label="gini = 0.0\nsamples = 1\nvalue = [1, 0]"] ;
56 -> 58 ;
59 [label="x[0] <= 824.0\ngini = 0.3\nsamples = 98\nvalue = [80, 18]"] ;
9 -> 59 ;
60 [label="x[0] <= 417.5\ngini = 0.28\nsamples = 95\nvalue = [79, 16]"] ;
59 -> 60 ;
61 [label="gini = 0.0\nsamples = 1\nvalue = [0, 1]"] ;
60 -> 61 ;
62 [label="x[0] <= 602.5\ngini = 0.268\nsamples = 94\nvalue = [79, 15]"] ;
60 -> 62 ;
63 [label="x[0] <= 590.5\ngini = 0.383\nsamples = 31\nvalue = [23, 8]"] ;
62 -> 63 ;
64 [label="x[0] <= 565.0\ngini = 0.26\nsamples = 26\nvalue = [22, 4]"] ;
63 -> 64 ;
65 [label="x[2] <= 8.5\ngini = 0.117\nsamples = 16\nvalue = [15, 1]"] ;
64 -> 65 ;
66 [label="gini = 0.0\nsamples = 13\nvalue = [13, 0]"] ;
65 -> 66 ;
67 [label="x[7] <= 117430.629\ngini = 0.444\nsamples = 3\nvalue = [2, 1]"] ;
65 -> 67 ;
68 [label="gini = 0.0\nsamples = 2\nvalue = [2, 0]"] ;
67 -> 68 ;
69 [label="gini = 0.0\nsamples = 1\nvalue = [0, 1]"] ;
67 -> 69 ;
70 [label="x[7] <= 119378.941\ngini = 0.42\nsamples = 10\nvalue = [7, 3]"] ;
64 -> 70 ;
71 [label="x[0] <= 581.0\ngini = 0.49\nsamples = 7\nvalue = [4, 3]"] ;
70 -> 71 ;
72 [label="gini = 0.0\nsamples = 2\nvalue = [0, 2]"] ;
71 -> 72 ;
73 [label="x[7] <= 87699.379\ngini = 0.32\nsamples = 5\nvalue = [4, 1]"] ;
71 -> 73 ;
74 [label="gini = 0.0\nsamples = 4\nvalue = [4, 0]"] ;
73 -> 74 ;
75 [label="gini = 0.0\nsamples = 1\nvalue = [0, 1]"] ;
73 -> 75 ;
76 [label="gini = 0.0\nsamples = 3\nvalue = [3, 0]"] ;
70 -> 76 ;
77 [label="x[1] <= 38.5\ngini = 0.32\nsamples = 5\nvalue = [1, 4]"] ;
63 -> 77 ;
78 [label="gini = 0.0\nsamples = 4\nvalue = [0, 4]"] ;
77 -> 78 ;
79 [label="gini = 0.0\nsamples = 1\nvalue = [1, 0]"] ;
77 -> 79 ;
80 [label="x[0] <= 691.5\ngini = 0.198\nsamples = 63\nvalue = [56, 7]"] ;
62 -> 80 ;
81 [label="x[7] <= 140336.781\ngini = 0.059\nsamples = 33\nvalue = [32, 1]"] ;
80 -> 81 ;
82 [label="gini = 0.0\nsamples = 25\nvalue = [25, 0]"] ;
81 -> 82 ;
83 [label="x[7] <= 144761.633\ngini = 0.219\nsamples = 8\nvalue = [7, 1]"] ;
81 -> 83 ;
84 [label="gini = 0.0\nsamples = 1\nvalue = [0, 1]"] ;
83 -> 84 ;
85 [label="gini = 0.0\nsamples = 7\nvalue = [7, 0]"] ;
83 -> 85 ;
86 [label="x[0] <= 693.0\ngini = 0.32\nsamples = 30\nvalue = [24, 6]"] ;
80 -> 86 ;
87 [label="gini = 0.0\nsamples = 2\nvalue = [0, 2]"] ;
86 -> 87 ;
88 [label="x[7] <= 132808.457\ngini = 0.245\nsamples = 28\nvalue = [24, 4]"] ;
86 -> 88 ;
89 [label="x[7] <= 33408.555\ngini = 0.095\nsamples = 20\nvalue = [19, 1]"] ;
88 -> 89 ;
90 [label="x[7] <= 21873.379\ngini = 0.444\nsamples = 3\nvalue = [2, 1]"] ;
89 -> 90 ;
91 [label="gini = 0.0\nsamples = 2\nvalue = [2, 0]"] ;
90 -> 91 ;
92 [label="gini = 0.0\nsamples = 1\nvalue = [0, 1]"] ;
90 -> 92 ;
93 [label="gini = 0.0\nsamples = 17\nvalue = [17, 0]"] ;
89 -> 93 ;
94 [label="x[1] <= 35.0\ngini = 0.469\nsamples = 8\nvalue = [5, 3]"] ;
88 -> 94 ;
95 [label="x[0] <= 786.5\ngini = 0.375\nsamples = 4\nvalue = [1, 3]"] ;
94 -> 95 ;
96 [label="gini = 0.0\nsamples = 3\nvalue = [0, 3]"] ;
95 -> 96 ;
97 [label="gini = 0.0\nsamples = 1\nvalue = [1, 0]"] ;
95 -> 97 ;
98 [label="gini = 0.0\nsamples = 4\nvalue = [4, 0]"] ;
94 -> 98 ;
99 [label="x[2] <= 8.5\ngini = 0.444\nsamples = 3\nvalue = [1, 2]"] ;
59 -> 99 ;
100 [label="gini = 0.0\nsamples = 1\nvalue = [1, 0]"] ;
99 -> 100 ;
101 [label="gini = 0.0\nsamples = 2\nvalue = [0, 2]"] ;
99 -> 101 ;
102 [label="gini = 0.0\nsamples = 2\nvalue = [0, 2]"] ;
8 -> 102 ;
103 [label="x[0] <= 716.0\ngini = 0.5\nsamples = 30\nvalue = [15, 15]"] ;
7 -> 103 ;
104 [label="x[0] <= 669.5\ngini = 0.455\nsamples = 20\nvalue = [13, 7]"] ;
103 -> 104 ;
105 [label="x[0] <= 647.5\ngini = 0.498\nsamples = 15\nvalue = [8, 7]"] ;
104 -> 105 ;
106 [label="x[1] <= 40.5\ngini = 0.444\nsamples = 12\nvalue = [8, 4]"] ;
105 -> 106 ;
107 [label="x[7] <= 114348.957\ngini = 0.5\nsamples = 8\nvalue = [4, 4]"] ;
106 -> 107 ;
108 [label="gini = 0.0\nsamples = 2\nvalue = [0, 2]"] ;
107 -> 108 ;
109 [label="x[7] <= 151486.945\ngini = 0.444\nsamples = 6\nvalue = [4, 2]"] ;
107 -> 109 ;
110 [label="gini = 0.0\nsamples = 3\nvalue = [3, 0]"] ;
109 -> 110 ;
111 [label="x[7] <= 170423.438\ngini = 0.444\nsamples = 3\nvalue = [1, 2]"] ;
109 -> 111 ;
112 [label="gini = 0.0\nsamples = 2\nvalue = [0, 2]"] ;
111 -> 112 ;
113 [label="gini = 0.0\nsamples = 1\nvalue = [1, 0]"] ;
111 -> 113 ;
114 [label="gini = 0.0\nsamples = 4\nvalue = [4, 0]"] ;
106 -> 114 ;
115 [label="gini = 0.0\nsamples = 3\nvalue = [0, 3]"] ;
105 -> 115 ;
116 [label="gini = 0.0\nsamples = 5\nvalue = [5, 0]"] ;
104 -> 116 ;
117 [label="x[0] <= 777.5\ngini = 0.32\nsamples = 10\nvalue = [2, 8]"] ;
103 -> 117 ;
118 [label="gini = 0.0\nsamples = 7\nvalue = [0, 7]"] ;
117 -> 118 ;
119 [label="x[0] <= 821.0\ngini = 0.444\nsamples = 3\nvalue = [2, 1]"] ;
117 -> 119 ;
120 [label="gini = 0.0\nsamples = 2\nvalue = [2, 0]"] ;
119 -> 120 ;
121 [label="gini = 0.0\nsamples = 1\nvalue = [0, 1]"] ;
119 -> 121 ;
122 [label="x[0] <= 419.0\ngini = 0.275\nsamples = 207\nvalue = [173, 34]"] ;
6 -> 122 ;
123 [label="gini = 0.0\nsamples = 3\nvalue = [0, 3]"] ;
122 -> 123 ;
124 [label="x[3] <= 46942.57\ngini = 0.258\nsamples = 204\nvalue = [173.0, 31.0]"] ;
122 -> 124 ;
125 [label="x[0] <= 651.5\ngini = 0.247\nsamples = 201\nvalue = [172.0, 29.0]"] ;
124 -> 125 ;
126 [label="x[2] <= 9.5\ngini = 0.331\nsamples = 105\nvalue = [83, 22]"] ;
125 -> 126 ;
127 [label="x[2] <= 7.5\ngini = 0.308\nsamples = 100\nvalue = [81, 19]"] ;
126 -> 127 ;
128 [label="x[1] <= 19.0\ngini = 0.35\nsamples = 84\nvalue = [65, 19]"] ;
127 -> 128 ;
129 [label="gini = 0.0\nsamples = 1\nvalue = [0, 1]"] ;
128 -> 129 ;
130 [label="x[1] <= 30.5\ngini = 0.34\nsamples = 83\nvalue = [65, 18]"] ;
128 -> 130 ;
131 [label="x[5] <= 0.5\ngini = 0.111\nsamples = 17\nvalue = [16, 1]"] ;
130 -> 131 ;
132 [label="x[1] <= 25.5\ngini = 0.375\nsamples = 4\nvalue = [3, 1]"] ;
131 -> 132 ;
133 [label="gini = 0.0\nsamples = 1\nvalue = [0, 1]"] ;
132 -> 133 ;
134 [label="gini = 0.0\nsamples = 3\nvalue = [3, 0]"] ;
132 -> 134 ;
135 [label="gini = 0.0\nsamples = 13\nvalue = [13, 0]"] ;
131 -> 135 ;
136 [label="x[1] <= 31.5\ngini = 0.382\nsamples = 66\nvalue = [49, 17]"] ;
130 -> 136 ;
137 [label="gini = 0.0\nsamples = 4\nvalue = [0, 4]"] ;
136 -> 137 ;
138 [label="x[0] <= 648.5\ngini = 0.331\nsamples = 62\nvalue = [49, 13]"] ;
136 -> 138 ;
139 [label="x[7] <= 14583.465\ngini = 0.316\nsamples = 61\nvalue = [49, 12]"] ;
138 -> 139 ;
140 [label="x[7] <= 9050.42\ngini = 0.5\nsamples = 4\nvalue = [2, 2]"] ;
139 -> 140 ;
141 [label="gini = 0.0\nsamples = 2\nvalue = [2, 0]"] ;
140 -> 141 ;
142 [label="gini = 0.0\nsamples = 2\nvalue = [0, 2]"] ;
140 -> 142 ;
143 [label="x[0] <= 620.5\ngini = 0.289\nsamples = 57\nvalue = [47, 10]"] ;
139 -> 143 ;
144 [label="x[0] <= 614.5\ngini = 0.325\nsamples = 49\nvalue = [39, 10]"] ;
143 -> 144 ;
145 [label="x[9] <= 0.5\ngini = 0.287\nsamples = 46\nvalue = [38, 8]"] ;
144 -> 145 ;
146 [label="x[7] <= 60086.77\ngini = 0.198\nsamples = 36\nvalue = [32, 4]"] ;
145 -> 146 ;
147 [label="x[7] <= 48851.455\ngini = 0.397\nsamples = 11\nvalue = [8, 3]"] ;
146 -> 147 ;
148 [label="gini = 0.0\nsamples = 6\nvalue = [6, 0]"] ;
147 -> 148 ;
149 [label="x[1] <= 36.5\ngini = 0.48\nsamples = 5\nvalue = [2, 3]"] ;
147 -> 149 ;
150 [label="gini = 0.0\nsamples = 2\nvalue = [2, 0]"] ;
149 -> 150 ;
151 [label="gini = 0.0\nsamples = 3\nvalue = [0, 3]"] ;
149 -> 151 ;
152 [label="x[1] <= 40.5\ngini = 0.077\nsamples = 25\nvalue = [24, 1]"] ;
146 -> 152 ;
153 [label="gini = 0.0\nsamples = 19\nvalue = [19, 0]"] ;
152 -> 153 ;
154 [label="x[10] <= 0.5\ngini = 0.278\nsamples = 6\nvalue = [5, 1]"] ;
152 -> 154 ;
155 [label="x[7] <= 122046.555\ngini = 0.5\nsamples = 2\nvalue = [1, 1]"] ;
154 -> 155 ;
156 [label="gini = 0.0\nsamples = 1\nvalue = [1, 0]"] ;
155 -> 156 ;
157 [label="gini = 0.0\nsamples = 1\nvalue = [0, 1]"] ;
155 -> 157 ;
158 [label="gini = 0.0\nsamples = 4\nvalue = [4, 0]"] ;
154 -> 158 ;
159 [label="x[7] <= 132191.812\ngini = 0.48\nsamples = 10\nvalue = [6, 4]"] ;
145 -> 159 ;
160 [label="x[0] <= 584.5\ngini = 0.278\nsamples = 6\nvalue = [5, 1]"] ;
159 -> 160 ;
161 [label="gini = 0.0\nsamples = 4\nvalue = [4, 0]"] ;
160 -> 161 ;
162 [label="x[7] <= 78292.668\ngini = 0.5\nsamples = 2\nvalue = [1, 1]"] ;
160 -> 162 ;
163 [label="gini = 0.0\nsamples = 1\nvalue = [1, 0]"] ;
162 -> 163 ;
164 [label="gini = 0.0\nsamples = 1\nvalue = [0, 1]"] ;
162 -> 164 ;
165 [label="x[7] <= 167861.648\ngini = 0.375\nsamples = 4\nvalue = [1, 3]"] ;
159 -> 165 ;
166 [label="gini = 0.0\nsamples = 3\nvalue = [0, 3]"] ;
165 -> 166 ;
167 [label="gini = 0.0\nsamples = 1\nvalue = [1, 0]"] ;
165 -> 167 ;
168 [label="x[2] <= 4.5\ngini = 0.444\nsamples = 3\nvalue = [1, 2]"] ;
144 -> 168 ;
169 [label="gini = 0.0\nsamples = 1\nvalue = [1, 0]"] ;
168 -> 169 ;
170 [label="gini = 0.0\nsamples = 2\nvalue = [0, 2]"] ;
168 -> 170 ;
171 [label="gini = 0.0\nsamples = 8\nvalue = [8, 0]"] ;
143 -> 171 ;
172 [label="gini = 0.0\nsamples = 1\nvalue = [0, 1]"] ;
138 -> 172 ;
173 [label="gini = 0.0\nsamples = 16\nvalue = [16, 0]"] ;
127 -> 173 ;
174 [label="x[0] <= 610.0\ngini = 0.48\nsamples = 5\nvalue = [2, 3]"] ;
126 -> 174 ;
175 [label="x[7] <= 64275.199\ngini = 0.444\nsamples = 3\nvalue = [2, 1]"] ;
174 -> 175 ;
176 [label="gini = 0.0\nsamples = 1\nvalue = [0, 1]"] ;
175 -> 176 ;
177 [label="gini = 0.0\nsamples = 2\nvalue = [2, 0]"] ;
175 -> 177 ;
178 [label="gini = 0.0\nsamples = 2\nvalue = [0, 2]"] ;
174 -> 178 ;
179 [label="x[7] <= 188655.094\ngini = 0.135\nsamples = 96\nvalue = [89, 7]"] ;
125 -> 179 ;
180 [label="x[2] <= 5.5\ngini = 0.118\nsamples = 95\nvalue = [89, 6]"] ;
179 -> 180 ;
181 [label="gini = 0.0\nsamples = 47\nvalue = [47, 0]"] ;
180 -> 181 ;
182 [label="x[2] <= 7.5\ngini = 0.219\nsamples = 48\nvalue = [42, 6]"] ;
180 -> 182 ;
183 [label="x[7] <= 50952.27\ngini = 0.34\nsamples = 23\nvalue = [18, 5]"] ;
182 -> 183 ;
184 [label="x[7] <= 41449.238\ngini = 0.5\nsamples = 6\nvalue = [3, 3]"] ;
183 -> 184 ;
185 [label="gini = 0.0\nsamples = 3\nvalue = [3, 0]"] ;
184 -> 185 ;
186 [label="gini = 0.0\nsamples = 3\nvalue = [0, 3]"] ;
184 -> 186 ;
187 [label="x[1] <= 39.5\ngini = 0.208\nsamples = 17\nvalue = [15, 2]"] ;
183 -> 187 ;
188 [label="x[0] <= 744.5\ngini = 0.124\nsamples = 15\nvalue = [14, 1]"] ;
187 -> 188 ;
189 [label="gini = 0.0\nsamples = 10\nvalue = [10, 0]"] ;
188 -> 189 ;
190 [label="x[0] <= 752.0\ngini = 0.32\nsamples = 5\nvalue = [4, 1]"] ;
188 -> 190 ;
191 [label="gini = 0.0\nsamples = 1\nvalue = [0, 1]"] ;
190 -> 191 ;
192 [label="gini = 0.0\nsamples = 4\nvalue = [4, 0]"] ;
190 -> 192 ;
193 [label="x[5] <= 0.5\ngini = 0.5\nsamples = 2\nvalue = [1, 1]"] ;
187 -> 193 ;
194 [label="gini = 0.0\nsamples = 1\nvalue = [0, 1]"] ;
193 -> 194 ;
195 [label="gini = 0.0\nsamples = 1\nvalue = [1, 0]"] ;
193 -> 195 ;
196 [label="x[1] <= 40.5\ngini = 0.077\nsamples = 25\nvalue = [24, 1]"] ;
182 -> 196 ;
197 [label="gini = 0.0\nsamples = 23\nvalue = [23, 0]"] ;
196 -> 197 ;
198 [label="x[0] <= 701.0\ngini = 0.5\nsamples = 2\nvalue = [1, 1]"] ;
196 -> 198 ;
199 [label="gini = 0.0\nsamples = 1\nvalue = [0, 1]"] ;
198 -> 199 ;
200 [label="gini = 0.0\nsamples = 1\nvalue = [1, 0]"] ;
198 -> 200 ;
201 [label="gini = 0.0\nsamples = 1\nvalue = [0, 1]"] ;
179 -> 201 ;
202 [label="x[10] <= 0.5\ngini = 0.444\nsamples = 3\nvalue = [1, 2]"] ;
124 -> 202 ;
203 [label="gini = 0.0\nsamples = 2\nvalue = [0, 2]"] ;
202 -> 203 ;
204 [label="gini = 0.0\nsamples = 1\nvalue = [1, 0]"] ;
202 -> 204 ;
205 [label="x[0] <= 611.0\ngini = 0.486\nsamples = 24\nvalue = [10, 14]"] ;
5 -> 205 ;
206 [label="x[7] <= 173371.297\ngini = 0.32\nsamples = 10\nvalue = [8, 2]"] ;
205 -> 206 ;
207 [label="gini = 0.0\nsamples = 8\nvalue = [8, 0]"] ;
206 -> 207 ;
208 [label="gini = 0.0\nsamples = 2\nvalue = [0, 2]"] ;
206 -> 208 ;
209 [label="x[2] <= 9.0\ngini = 0.245\nsamples = 14\nvalue = [2, 12]"] ;
205 -> 209 ;
210 [label="x[2] <= 5.5\ngini = 0.142\nsamples = 13\nvalue = [1, 12]"] ;
209 -> 210 ;
211 [label="gini = 0.0\nsamples = 10\nvalue = [0, 10]"] ;
210 -> 211 ;
212 [label="x[2] <= 6.5\ngini = 0.444\nsamples = 3\nvalue = [1, 2]"] ;
210 -> 212 ;
213 [label="gini = 0.0\nsamples = 1\nvalue = [1, 0]"] ;
212 -> 213 ;
214 [label="gini = 0.0\nsamples = 2\nvalue = [0, 2]"] ;
212 -> 214 ;
215 [label="gini = 0.0\nsamples = 1\nvalue = [1, 0]"] ;
209 -> 215 ;
216 [label="x[3] <= 175375.531\ngini = 0.173\nsamples = 1501\nvalue = [1357, 144]"] ;
4 -> 216 ;
217 [label="x[1] <= 39.5\ngini = 0.158\nsamples = 1442\nvalue = [1317, 125]"] ;
216 -> 217 ;
218 [label="x[6] <= 0.5\ngini = 0.127\nsamples = 1215\nvalue = [1132, 83]"] ;
217 -> 218 ;
219 [label="x[0] <= 426.0\ngini = 0.172\nsamples = 609\nvalue = [551, 58]"] ;
218 -> 219 ;
220 [label="x[7] <= 136290.75\ngini = 0.444\nsamples = 3\nvalue = [1, 2]"] ;
219 -> 220 ;
221 [label="gini = 0.0\nsamples = 2\nvalue = [0, 2]"] ;
220 -> 221 ;
222 [label="gini = 0.0\nsamples = 1\nvalue = [1, 0]"] ;
220 -> 222 ;
223 [label="x[3] <= 171881.125\ngini = 0.168\nsamples = 606\nvalue = [550, 56]"] ;
219 -> 223 ;
224 [label="x[9] <= 0.5\ngini = 0.162\nsamples = 598\nvalue = [545, 53]"] ;
223 -> 224 ;
225 [label="x[7] <= 149444.922\ngini = 0.135\nsamples = 427\nvalue = [396, 31]"] ;
224 -> 225 ;
226 [label="x[0] <= 668.5\ngini = 0.106\nsamples = 320\nvalue = [302, 18]"] ;
225 -> 226 ;
227 [label="x[0] <= 515.0\ngini = 0.052\nsamples = 187\nvalue = [182, 5]"] ;
226 -> 227 ;
228 [label="x[2] <= 8.5\ngini = 0.18\nsamples = 30\nvalue = [27, 3]"] ;
227 -> 228 ;
229 [label="x[0] <= 513.0\ngini = 0.133\nsamples = 28\nvalue = [26, 2]"] ;
228 -> 229 ;
230 [label="x[3] <= 86270.047\ngini = 0.074\nsamples = 26\nvalue = [25, 1]"] ;
229 -> 230 ;
231 [label="x[3] <= 84595.09\ngini = 0.375\nsamples = 4\nvalue = [3, 1]"] ;
230 -> 231 ;
232 [label="gini = 0.0\nsamples = 3\nvalue = [3, 0]"] ;
231 -> 232 ;
233 [label="gini = 0.0\nsamples = 1\nvalue = [0, 1]"] ;
231 -> 233 ;
234 [label="gini = 0.0\nsamples = 22\nvalue = [22, 0]"] ;
230 -> 234 ;
235 [label="x[7] <= 13362.895\ngini = 0.5\nsamples = 2\nvalue = [1, 1]"] ;
229 -> 235 ;
236 [label="gini = 0.0\nsamples = 1\nvalue = [1, 0]"] ;
235 -> 236 ;
237 [label="gini = 0.0\nsamples = 1\nvalue = [0, 1]"] ;
235 -> 237 ;
238 [label="x[0] <= 454.5\ngini = 0.5\nsamples = 2\nvalue = [1, 1]"] ;
228 -> 238 ;
239 [label="gini = 0.0\nsamples = 1\nvalue = [0, 1]"] ;
238 -> 239 ;
240 [label="gini = 0.0\nsamples = 1\nvalue = [1, 0]"] ;
238 -> 240 ;
241 [label="x[3] <= 73070.926\ngini = 0.025\nsamples = 157\nvalue = [155, 2]"] ;
227 -> 241 ;
242 [label="x[1] <= 37.5\ngini = 0.444\nsamples = 3\nvalue = [2, 1]"] ;
241 -> 242 ;
243 [label="gini = 0.0\nsamples = 2\nvalue = [2, 0]"] ;
242 -> 243 ;
244 [label="gini = 0.0\nsamples = 1\nvalue = [0, 1]"] ;
242 -> 244 ;
245 [label="x[3] <= 136607.164\ngini = 0.013\nsamples = 154\nvalue = [153, 1]"] ;
241 -> 245 ;
246 [label="gini = 0.0\nsamples = 110\nvalue = [110, 0]"] ;
245 -> 246 ;
247 [label="x[3] <= 137005.953\ngini = 0.044\nsamples = 44\nvalue = [43, 1]"] ;
245 -> 247 ;
248 [label="gini = 0.0\nsamples = 1\nvalue = [0, 1]"] ;
247 -> 248 ;
249 [label="gini = 0.0\nsamples = 43\nvalue = [43, 0]"] ;
247 -> 249 ;
250 [label="x[0] <= 680.5\ngini = 0.176\nsamples = 133\nvalue = [120, 13]"] ;
226 -> 250 ;
251 [label="x[0] <= 676.5\ngini = 0.397\nsamples = 22\nvalue = [16, 6]"] ;
250 -> 251 ;
252 [label="x[2] <= 1.5\ngini = 0.278\nsamples = 18\nvalue = [15, 3]"] ;
251 -> 252 ;
253 [label="x[3] <= 92293.305\ngini = 0.444\nsamples = 3\nvalue = [1, 2]"] ;
252 -> 253 ;
254 [label="gini = 0.0\nsamples = 1\nvalue = [1, 0]"] ;
253 -> 254 ;
255 [label="gini = 0.0\nsamples = 2\nvalue = [0, 2]"] ;
253 -> 255 ;
256 [label="x[3] <= 83926.859\ngini = 0.124\nsamples = 15\nvalue = [14, 1]"] ;
252 -> 256 ;
257 [label="gini = 0.0\nsamples = 1\nvalue = [0, 1]"] ;
256 -> 257 ;
258 [label="gini = 0.0\nsamples = 14\nvalue = [14, 0]"] ;
256 -> 258 ;
259 [label="x[7] <= 104430.75\ngini = 0.375\nsamples = 4\nvalue = [1, 3]"] ;
251 -> 259 ;
260 [label="gini = 0.0\nsamples = 3\nvalue = [0, 3]"] ;
259 -> 260 ;
261 [label="gini = 0.0\nsamples = 1\nvalue = [1, 0]"] ;
259 -> 261 ;
262 [label="x[1] <= 22.5\ngini = 0.118\nsamples = 111\nvalue = [104.0, 7.0]"] ;
250 -> 262 ;
263 [label="x[5] <= 0.5\ngini = 0.5\nsamples = 2\nvalue = [1, 1]"] ;
262 -> 263 ;
264 [label="gini = 0.0\nsamples = 1\nvalue = [1, 0]"] ;
263 -> 264 ;
265 [label="gini = 0.0\nsamples = 1\nvalue = [0, 1]"] ;
263 -> 265 ;
266 [label="x[7] <= 26323.675\ngini = 0.104\nsamples = 109\nvalue = [103, 6]"] ;
262 -> 266 ;
267 [label="x[7] <= 20414.351\ngini = 0.291\nsamples = 17\nvalue = [14, 3]"] ;
266 -> 267 ;
268 [label="gini = 0.0\nsamples = 12\nvalue = [12, 0]"] ;
267 -> 268 ;
269 [label="x[10] <= 0.5\ngini = 0.48\nsamples = 5\nvalue = [2, 3]"] ;
267 -> 269 ;
270 [label="x[7] <= 23993.865\ngini = 0.444\nsamples = 3\nvalue = [2, 1]"] ;
269 -> 270 ;
271 [label="gini = 0.0\nsamples = 2\nvalue = [2, 0]"] ;
270 -> 271 ;
272 [label="gini = 0.0\nsamples = 1\nvalue = [0, 1]"] ;
270 -> 272 ;
273 [label="gini = 0.0\nsamples = 2\nvalue = [0, 2]"] ;
269 -> 273 ;
274 [label="x[7] <= 89036.867\ngini = 0.063\nsamples = 92\nvalue = [89, 3]"] ;
266 -> 274 ;
275 [label="x[7] <= 88627.711\ngini = 0.124\nsamples = 45\nvalue = [42, 3]"] ;
274 -> 275 ;
276 [label="x[2] <= 1.5\ngini = 0.087\nsamples = 44\nvalue = [42, 2]"] ;
275 -> 276 ;
277 [label="x[10] <= 0.5\ngini = 0.444\nsamples = 3\nvalue = [2, 1]"] ;
276 -> 277 ;
278 [label="gini = 0.0\nsamples = 1\nvalue = [0, 1]"] ;
277 -> 278 ;
279 [label="gini = 0.0\nsamples = 2\nvalue = [2, 0]"] ;
277 -> 279 ;
280 [label="x[3] <= 153061.148\ngini = 0.048\nsamples = 41\nvalue = [40, 1]"] ;
276 -> 280 ;
281 [label="gini = 0.0\nsamples = 36\nvalue = [36, 0]"] ;
280 -> 281 ;
282 [label="x[3] <= 156708.516\ngini = 0.32\nsamples = 5\nvalue = [4, 1]"] ;
280 -> 282 ;
283 [label="gini = 0.0\nsamples = 1\nvalue = [0, 1]"] ;
282 -> 283 ;
284 [label="gini = 0.0\nsamples = 4\nvalue = [4, 0]"] ;
282 -> 284 ;
285 [label="gini = 0.0\nsamples = 1\nvalue = [0, 1]"] ;
275 -> 285 ;
286 [label="gini = 0.0\nsamples = 47\nvalue = [47, 0]"] ;
274 -> 286 ;
287 [label="x[7] <= 153119.188\ngini = 0.213\nsamples = 107\nvalue = [94, 13]"] ;
225 -> 287 ;
288 [label="x[10] <= 0.5\ngini = 0.5\nsamples = 8\nvalue = [4, 4]"] ;
287 -> 288 ;
289 [label="gini = 0.0\nsamples = 4\nvalue = [0, 4]"] ;
288 -> 289 ;
290 [label="gini = 0.0\nsamples = 4\nvalue = [4, 0]"] ;
288 -> 290 ;
291 [label="x[1] <= 31.5\ngini = 0.165\nsamples = 99\nvalue = [90, 9]"] ;
287 -> 291 ;
292 [label="gini = 0.0\nsamples = 37\nvalue = [37, 0]"] ;
291 -> 292 ;
293 [label="x[3] <= 147778.016\ngini = 0.248\nsamples = 62\nvalue = [53, 9]"] ;
291 -> 293 ;
294 [label="x[5] <= 0.5\ngini = 0.198\nsamples = 54\nvalue = [48, 6]"] ;
293 -> 294 ;
295 [label="x[7] <= 195550.789\ngini = 0.32\nsamples = 20\nvalue = [16, 4]"] ;
294 -> 295 ;
296 [label="x[7] <= 156902.164\ngini = 0.208\nsamples = 17\nvalue = [15, 2]"] ;
295 -> 296 ;
297 [label="gini = 0.0\nsamples = 1\nvalue = [0, 1]"] ;
296 -> 297 ;
298 [label="x[3] <= 83546.957\ngini = 0.117\nsamples = 16\nvalue = [15, 1]"] ;
296 -> 298 ;
299 [label="x[2] <= 3.0\ngini = 0.5\nsamples = 2\nvalue = [1, 1]"] ;
298 -> 299 ;
300 [label="gini = 0.0\nsamples = 1\nvalue = [1, 0]"] ;
299 -> 300 ;
301 [label="gini = 0.0\nsamples = 1\nvalue = [0, 1]"] ;
299 -> 301 ;
302 [label="gini = 0.0\nsamples = 14\nvalue = [14, 0]"] ;
298 -> 302 ;
303 [label="x[3] <= 128460.879\ngini = 0.444\nsamples = 3\nvalue = [1, 2]"] ;
295 -> 303 ;
304 [label="gini = 0.0\nsamples = 2\nvalue = [0, 2]"] ;
303 -> 304 ;
305 [label="gini = 0.0\nsamples = 1\nvalue = [1, 0]"] ;
303 -> 305 ;
306 [label="x[3] <= 121425.035\ngini = 0.111\nsamples = 34\nvalue = [32, 2]"] ;
294 -> 306 ;
307 [label="gini = 0.0\nsamples = 21\nvalue = [21, 0]"] ;
306 -> 307 ;
308 [label="x[3] <= 123392.105\ngini = 0.26\nsamples = 13\nvalue = [11, 2]"] ;
306 -> 308 ;
309 [label="gini = 0.0\nsamples = 1\nvalue = [0, 1]"] ;
308 -> 309 ;
310 [label="x[1] <= 38.5\ngini = 0.153\nsamples = 12\nvalue = [11, 1]"] ;
308 -> 310 ;
311 [label="gini = 0.0\nsamples = 9\nvalue = [9, 0]"] ;
310 -> 311 ;
312 [label="x[10] <= 0.5\ngini = 0.444\nsamples = 3\nvalue = [2, 1]"] ;
310 -> 312 ;
313 [label="gini = 0.0\nsamples = 1\nvalue = [0, 1]"] ;
312 -> 313 ;
314 [label="gini = 0.0\nsamples = 2\nvalue = [2, 0]"] ;
312 -> 314 ;
315 [label="x[3] <= 151410.945\ngini = 0.469\nsamples = 8\nvalue = [5, 3]"] ;
293 -> 315 ;
316 [label="gini = 0.0\nsamples = 3\nvalue = [0, 3]"] ;
315 -> 316 ;
317 [label="gini = 0.0\nsamples = 5\nvalue = [5, 0]"] ;
315 -> 317 ;
318 [label="x[2] <= 0.5\ngini = 0.224\nsamples = 171\nvalue = [149, 22]"] ;
224 -> 318 ;
319 [label="x[3] <= 131034.664\ngini = 0.444\nsamples = 9\nvalue = [6, 3]"] ;
318 -> 319 ;
320 [label="x[7] <= 168171.297\ngini = 0.245\nsamples = 7\nvalue = [6, 1]"] ;
319 -> 320 ;
321 [label="gini = 0.0\nsamples = 6\nvalue = [6, 0]"] ;
320 -> 321 ;
322 [label="gini = 0.0\nsamples = 1\nvalue = [0, 1]"] ;
320 -> 322 ;
323 [label="gini = 0.0\nsamples = 2\nvalue = [0, 2]"] ;
319 -> 323 ;
324 [label="x[7] <= 16510.85\ngini = 0.207\nsamples = 162\nvalue = [143, 19]"] ;
318 -> 324 ;
325 [label="x[3] <= 74065.809\ngini = 0.388\nsamples = 19\nvalue = [14, 5]"] ;
324 -> 325 ;
326 [label="gini = 0.0\nsamples = 2\nvalue = [0, 2]"] ;
325 -> 326 ;
327 [label="x[3] <= 157277.523\ngini = 0.291\nsamples = 17\nvalue = [14, 3]"] ;
325 -> 327 ;
328 [label="x[7] <= 15975.965\ngini = 0.124\nsamples = 15\nvalue = [14, 1]"] ;
327 -> 328 ;
329 [label="gini = 0.0\nsamples = 14\nvalue = [14, 0]"] ;
328 -> 329 ;
330 [label="gini = 0.0\nsamples = 1\nvalue = [0, 1]"] ;
328 -> 330 ;
331 [label="gini = 0.0\nsamples = 2\nvalue = [0, 2]"] ;
327 -> 331 ;
332 [label="x[3] <= 140115.875\ngini = 0.177\nsamples = 143\nvalue = [129, 14]"] ;
324 -> 332 ;
333 [label="x[3] <= 139839.578\ngini = 0.222\nsamples = 110\nvalue = [96.0, 14.0]"] ;
332 -> 333 ;
334 [label="x[3] <= 133489.484\ngini = 0.21\nsamples = 109\nvalue = [96, 13]"] ;
333 -> 334 ;
335 [label="x[1] <= 22.5\ngini = 0.172\nsamples = 95\nvalue = [86, 9]"] ;
334 -> 335 ;
336 [label="x[10] <= 0.5\ngini = 0.5\nsamples = 2\nvalue = [1, 1]"] ;
335 -> 336 ;
337 [label="gini = 0.0\nsamples = 1\nvalue = [1, 0]"] ;
336 -> 337 ;
338 [label="gini = 0.0\nsamples = 1\nvalue = [0, 1]"] ;
336 -> 338 ;
339 [label="x[0] <= 592.5\ngini = 0.157\nsamples = 93\nvalue = [85, 8]"] ;
335 -> 339 ;
340 [label="x[7] <= 172255.742\ngini = 0.285\nsamples = 29\nvalue = [24, 5]"] ;
339 -> 340 ;
341 [label="x[3] <= 81785.859\ngini = 0.245\nsamples = 28\nvalue = [24, 4]"] ;
340 -> 341 ;
342 [label="x[3] <= 77938.863\ngini = 0.48\nsamples = 5\nvalue = [3, 2]"] ;
341 -> 342 ;
343 [label="gini = 0.0\nsamples = 3\nvalue = [3, 0]"] ;
342 -> 343 ;
344 [label="gini = 0.0\nsamples = 2\nvalue = [0, 2]"] ;
342 -> 344 ;
345 [label="x[1] <= 25.0\ngini = 0.159\nsamples = 23\nvalue = [21, 2]"] ;
341 -> 345 ;
346 [label="x[3] <= 109742.406\ngini = 0.5\nsamples = 2\nvalue = [1, 1]"] ;
345 -> 346 ;
347 [label="gini = 0.0\nsamples = 1\nvalue = [1, 0]"] ;
346 -> 347 ;
348 [label="gini = 0.0\nsamples = 1\nvalue = [0, 1]"] ;
346 -> 348 ;
349 [label="x[7] <= 63413.375\ngini = 0.091\nsamples = 21\nvalue = [20, 1]"] ;
345 -> 349 ;
350 [label="x[7] <= 54001.051\ngini = 0.444\nsamples = 3\nvalue = [2, 1]"] ;
349 -> 350 ;
351 [label="gini = 0.0\nsamples = 2\nvalue = [2, 0]"] ;
350 -> 351 ;
352 [label="gini = 0.0\nsamples = 1\nvalue = [0, 1]"] ;
350 -> 352 ;
353 [label="gini = 0.0\nsamples = 18\nvalue = [18, 0]"] ;
349 -> 353 ;
354 [label="gini = 0.0\nsamples = 1\nvalue = [0, 1]"] ;
340 -> 354 ;
355 [label="x[2] <= 9.5\ngini = 0.089\nsamples = 64\nvalue = [61, 3]"] ;
339 -> 355 ;
356 [label="x[3] <= 118360.832\ngini = 0.063\nsamples = 61\nvalue = [59, 2]"] ;
355 -> 356 ;
357 [label="gini = 0.0\nsamples = 39\nvalue = [39, 0]"] ;
356 -> 357 ;
358 [label="x[3] <= 118851.492\ngini = 0.165\nsamples = 22\nvalue = [20, 2]"] ;
356 -> 358 ;
359 [label="gini = 0.0\nsamples = 1\nvalue = [0, 1]"] ;
358 -> 359 ;
360 [label="x[7] <= 83818.527\ngini = 0.091\nsamples = 21\nvalue = [20, 1]"] ;
358 -> 360 ;
361 [label="x[7] <= 75178.312\ngini = 0.278\nsamples = 6\nvalue = [5, 1]"] ;
360 -> 361 ;
362 [label="gini = 0.0\nsamples = 5\nvalue = [5, 0]"] ;
361 -> 362 ;
363 [label="gini = 0.0\nsamples = 1\nvalue = [0, 1]"] ;
361 -> 363 ;
364 [label="gini = 0.0\nsamples = 15\nvalue = [15, 0]"] ;
360 -> 364 ;
365 [label="x[7] <= 58909.959\ngini = 0.444\nsamples = 3\nvalue = [2, 1]"] ;
355 -> 365 ;
366 [label="gini = 0.0\nsamples = 1\nvalue = [0, 1]"] ;
365 -> 366 ;
367 [label="gini = 0.0\nsamples = 2\nvalue = [2, 0]"] ;
365 -> 367 ;
368 [label="x[1] <= 36.5\ngini = 0.408\nsamples = 14\nvalue = [10, 4]"] ;
334 -> 368 ;
369 [label="x[3] <= 133696.125\ngini = 0.298\nsamples = 11\nvalue = [9, 2]"] ;
368 -> 369 ;
370 [label="gini = 0.0\nsamples = 1\nvalue = [0, 1]"] ;
369 -> 370 ;
371 [label="x[1] <= 31.5\ngini = 0.18\nsamples = 10\nvalue = [9, 1]"] ;
369 -> 371 ;
372 [label="x[0] <= 644.0\ngini = 0.444\nsamples = 3\nvalue = [2, 1]"] ;
371 -> 372 ;
373 [label="gini = 0.0\nsamples = 1\nvalue = [0, 1]"] ;
372 -> 373 ;
374 [label="gini = 0.0\nsamples = 2\nvalue = [2, 0]"] ;
372 -> 374 ;
375 [label="gini = 0.0\nsamples = 7\nvalue = [7, 0]"] ;
371 -> 375 ;
376 [label="x[0] <= 707.5\ngini = 0.444\nsamples = 3\nvalue = [1, 2]"] ;
368 -> 376 ;
377 [label="gini = 0.0\nsamples = 2\nvalue = [0, 2]"] ;
376 -> 377 ;
378 [label="gini = 0.0\nsamples = 1\nvalue = [1, 0]"] ;
376 -> 378 ;
379 [label="gini = 0.0\nsamples = 1\nvalue = [0, 1]"] ;
333 -> 379 ;
380 [label="gini = 0.0\nsamples = 33\nvalue = [33, 0]"] ;
332 -> 380 ;
381 [label="x[3] <= 174159.219\ngini = 0.469\nsamples = 8\nvalue = [5, 3]"] ;
223 -> 381 ;
382 [label="x[7] <= 37097.921\ngini = 0.375\nsamples = 4\nvalue = [1, 3]"] ;
381 -> 382 ;
383 [label="gini = 0.0\nsamples = 1\nvalue = [1, 0]"] ;
382 -> 383 ;
384 [label="gini = 0.0\nsamples = 3\nvalue = [0, 3]"] ;
382 -> 384 ;
385 [label="gini = 0.0\nsamples = 4\nvalue = [4, 0]"] ;
381 -> 385 ;
386 [label="x[7] <= 163431.008\ngini = 0.079\nsamples = 606\nvalue = [581, 25]"] ;
218 -> 386 ;
387 [label="x[2] <= 0.5\ngini = 0.058\nsamples = 502\nvalue = [487, 15]"] ;
386 -> 387 ;
388 [label="x[3] <= 83247.953\ngini = 0.191\nsamples = 28\nvalue = [25, 3]"] ;
387 -> 388 ;
389 [label="x[10] <= 0.5\ngini = 0.5\nsamples = 4\nvalue = [2, 2]"] ;
388 -> 389 ;
390 [label="gini = 0.0\nsamples = 2\nvalue = [0, 2]"] ;
389 -> 390 ;
391 [label="gini = 0.0\nsamples = 2\nvalue = [2, 0]"] ;
389 -> 391 ;
392 [label="x[0] <= 561.0\ngini = 0.08\nsamples = 24\nvalue = [23, 1]"] ;
388 -> 392 ;
393 [label="x[0] <= 548.5\ngini = 0.32\nsamples = 5\nvalue = [4, 1]"] ;
392 -> 393 ;
394 [label="gini = 0.0\nsamples = 4\nvalue = [4, 0]"] ;
393 -> 394 ;
395 [label="gini = 0.0\nsamples = 1\nvalue = [0, 1]"] ;
393 -> 395 ;
396 [label="gini = 0.0\nsamples = 19\nvalue = [19, 0]"] ;
392 -> 396 ;
397 [label="x[7] <= 8720.135\ngini = 0.049\nsamples = 474\nvalue = [462, 12]"] ;
387 -> 397 ;
398 [label="x[7] <= 8649.25\ngini = 0.191\nsamples = 28\nvalue = [25, 3]"] ;
397 -> 398 ;
399 [label="x[10] <= 0.5\ngini = 0.137\nsamples = 27\nvalue = [25, 2]"] ;
398 -> 399 ;
400 [label="x[2] <= 5.5\ngini = 0.32\nsamples = 10\nvalue = [8, 2]"] ;
399 -> 400 ;
401 [label="x[0] <= 740.5\ngini = 0.444\nsamples = 3\nvalue = [1, 2]"] ;
400 -> 401 ;
402 [label="gini = 0.0\nsamples = 2\nvalue = [0, 2]"] ;
401 -> 402 ;
403 [label="gini = 0.0\nsamples = 1\nvalue = [1, 0]"] ;
401 -> 403 ;
404 [label="gini = 0.0\nsamples = 7\nvalue = [7, 0]"] ;
400 -> 404 ;
405 [label="gini = 0.0\nsamples = 17\nvalue = [17, 0]"] ;
399 -> 405 ;
406 [label="gini = 0.0\nsamples = 1\nvalue = [0, 1]"] ;
398 -> 406 ;
407 [label="x[1] <= 27.5\ngini = 0.04\nsamples = 446\nvalue = [437, 9]"] ;
397 -> 407 ;
408 [label="x[7] <= 84914.668\ngini = 0.095\nsamples = 80\nvalue = [76, 4]"] ;
407 -> 408 ;
409 [label="gini = 0.0\nsamples = 43\nvalue = [43, 0]"] ;
408 -> 409 ;
410 [label="x[7] <= 85368.301\ngini = 0.193\nsamples = 37\nvalue = [33, 4]"] ;
408 -> 410 ;
411 [label="gini = 0.0\nsamples = 1\nvalue = [0, 1]"] ;
410 -> 411 ;
412 [label="x[1] <= 23.5\ngini = 0.153\nsamples = 36\nvalue = [33, 3]"] ;
410 -> 412 ;
413 [label="gini = 0.0\nsamples = 18\nvalue = [18, 0]"] ;
412 -> 413 ;
414 [label="x[1] <= 26.5\ngini = 0.278\nsamples = 18\nvalue = [15, 3]"] ;
412 -> 414 ;
415 [label="x[7] <= 139764.031\ngini = 0.42\nsamples = 10\nvalue = [7, 3]"] ;
414 -> 415 ;
416 [label="x[1] <= 25.5\ngini = 0.5\nsamples = 6\nvalue = [3, 3]"] ;
415 -> 416 ;
417 [label="x[9] <= 0.5\ngini = 0.375\nsamples = 4\nvalue = [3, 1]"] ;
416 -> 417 ;
418 [label="gini = 0.0\nsamples = 3\nvalue = [3, 0]"] ;
417 -> 418 ;
419 [label="gini = 0.0\nsamples = 1\nvalue = [0, 1]"] ;
417 -> 419 ;
420 [label="gini = 0.0\nsamples = 2\nvalue = [0, 2]"] ;
416 -> 420 ;
421 [label="gini = 0.0\nsamples = 4\nvalue = [4, 0]"] ;
415 -> 421 ;
422 [label="gini = 0.0\nsamples = 8\nvalue = [8, 0]"] ;
414 -> 422 ;
423 [label="x[1] <= 37.5\ngini = 0.027\nsamples = 366\nvalue = [361, 5]"] ;
407 -> 423 ;
424 [label="x[2] <= 9.5\ngini = 0.013\nsamples = 298\nvalue = [296, 2]"] ;
423 -> 424 ;
425 [label="x[7] <= 48855.314\ngini = 0.007\nsamples = 283\nvalue = [282, 1]"] ;
424 -> 425 ;
426 [label="x[7] <= 48479.715\ngini = 0.025\nsamples = 78\nvalue = [77, 1]"] ;
425 -> 426 ;
427 [label="gini = 0.0\nsamples = 77\nvalue = [77, 0]"] ;
426 -> 427 ;
428 [label="gini = 0.0\nsamples = 1\nvalue = [0, 1]"] ;
426 -> 428 ;
429 [label="gini = 0.0\nsamples = 205\nvalue = [205, 0]"] ;
425 -> 429 ;
430 [label="x[3] <= 152068.203\ngini = 0.124\nsamples = 15\nvalue = [14, 1]"] ;
424 -> 430 ;
431 [label="gini = 0.0\nsamples = 13\nvalue = [13, 0]"] ;
430 -> 431 ;
432 [label="x[7] <= 52430.785\ngini = 0.5\nsamples = 2\nvalue = [1, 1]"] ;
430 -> 432 ;
433 [label="gini = 0.0\nsamples = 1\nvalue = [1, 0]"] ;
432 -> 433 ;
434 [label="gini = 0.0\nsamples = 1\nvalue = [0, 1]"] ;
432 -> 434 ;
435 [label="x[0] <= 745.0\ngini = 0.084\nsamples = 68\nvalue = [65, 3]"] ;
423 -> 435 ;
436 [label="x[0] <= 525.0\ngini = 0.038\nsamples = 52\nvalue = [51, 1]"] ;
435 -> 436 ;
437 [label="x[0] <= 520.0\ngini = 0.18\nsamples = 10\nvalue = [9, 1]"] ;
436 -> 437 ;
438 [label="gini = 0.0\nsamples = 9\nvalue = [9, 0]"] ;
437 -> 438 ;
439 [label="gini = 0.0\nsamples = 1\nvalue = [0, 1]"] ;
437 -> 439 ;
440 [label="gini = 0.0\nsamples = 42\nvalue = [42, 0]"] ;
436 -> 440 ;
441 [label="x[2] <= 2.5\ngini = 0.219\nsamples = 16\nvalue = [14, 2]"] ;
435 -> 441 ;
442 [label="gini = 0.0\nsamples = 1\nvalue = [0, 1]"] ;
441 -> 442 ;
443 [label="x[0] <= 748.5\ngini = 0.124\nsamples = 15\nvalue = [14, 1]"] ;
441 -> 443 ;
444 [label="x[2] <= 6.5\ngini = 0.444\nsamples = 3\nvalue = [2, 1]"] ;
443 -> 444 ;
445 [label="gini = 0.0\nsamples = 2\nvalue = [2, 0]"] ;
444 -> 445 ;
446 [label="gini = 0.0\nsamples = 1\nvalue = [0, 1]"] ;
444 -> 446 ;
447 [label="gini = 0.0\nsamples = 12\nvalue = [12, 0]"] ;
443 -> 447 ;
448 [label="x[7] <= 164285.57\ngini = 0.174\nsamples = 104\nvalue = [94, 10]"] ;
386 -> 448 ;
449 [label="x[1] <= 29.5\ngini = 0.444\nsamples = 3\nvalue = [1, 2]"] ;
448 -> 449 ;
450 [label="gini = 0.0\nsamples = 2\nvalue = [0, 2]"] ;
449 -> 450 ;
451 [label="gini = 0.0\nsamples = 1\nvalue = [1, 0]"] ;
449 -> 451 ;
452 [label="x[0] <= 676.5\ngini = 0.146\nsamples = 101\nvalue = [93, 8]"] ;
448 -> 452 ;
453 [label="x[3] <= 92999.961\ngini = 0.228\nsamples = 61\nvalue = [53, 8]"] ;
452 -> 453 ;
454 [label="x[1] <= 35.0\ngini = 0.49\nsamples = 7\nvalue = [4, 3]"] ;
453 -> 454 ;
455 [label="gini = 0.0\nsamples = 4\nvalue = [4, 0]"] ;
454 -> 455 ;
456 [label="gini = 0.0\nsamples = 3\nvalue = [0, 3]"] ;
454 -> 456 ;
457 [label="x[7] <= 179466.133\ngini = 0.168\nsamples = 54\nvalue = [49, 5]"] ;
453 -> 457 ;
458 [label="gini = 0.0\nsamples = 25\nvalue = [25, 0]"] ;
457 -> 458 ;
459 [label="x[7] <= 180824.273\ngini = 0.285\nsamples = 29\nvalue = [24, 5]"] ;
457 -> 459 ;
460 [label="x[0] <= 648.0\ngini = 0.375\nsamples = 4\nvalue = [1, 3]"] ;
459 -> 460 ;
461 [label="gini = 0.0\nsamples = 3\nvalue = [0, 3]"] ;
460 -> 461 ;
462 [label="gini = 0.0\nsamples = 1\nvalue = [1, 0]"] ;
460 -> 462 ;
463 [label="x[2] <= 2.5\ngini = 0.147\nsamples = 25\nvalue = [23, 2]"] ;
459 -> 463 ;
464 [label="x[7] <= 192914.375\ngini = 0.408\nsamples = 7\nvalue = [5, 2]"] ;
463 -> 464 ;
465 [label="x[0] <= 624.5\ngini = 0.444\nsamples = 3\nvalue = [1, 2]"] ;
464 -> 465 ;
466 [label="gini = 0.0\nsamples = 2\nvalue = [0, 2]"] ;
465 -> 466 ;
467 [label="gini = 0.0\nsamples = 1\nvalue = [1, 0]"] ;
465 -> 467 ;
468 [label="gini = 0.0\nsamples = 4\nvalue = [4, 0]"] ;
464 -> 468 ;
469 [label="gini = 0.0\nsamples = 18\nvalue = [18, 0]"] ;
463 -> 469 ;
470 [label="gini = 0.0\nsamples = 40\nvalue = [40, 0]"] ;
452 -> 470 ;
471 [label="x[3] <= 168810.57\ngini = 0.302\nsamples = 227\nvalue = [185, 42]"] ;
217 -> 471 ;
472 [label="x[3] <= 95175.105\ngini = 0.288\nsamples = 224\nvalue = [185, 39]"] ;
471 -> 472 ;
473 [label="x[3] <= 92054.398\ngini = 0.464\nsamples = 41\nvalue = [26, 15]"] ;
472 -> 473 ;
474 [label="x[2] <= 8.5\ngini = 0.418\nsamples = 37\nvalue = [26, 11]"] ;
473 -> 474 ;
475 [label="x[3] <= 63741.74\ngini = 0.36\nsamples = 34\nvalue = [26, 8]"] ;
474 -> 475 ;
476 [label="x[5] <= 0.5\ngini = 0.444\nsamples = 3\nvalue = [1, 2]"] ;
475 -> 476 ;
477 [label="gini = 0.0\nsamples = 2\nvalue = [0, 2]"] ;
476 -> 477 ;
478 [label="gini = 0.0\nsamples = 1\nvalue = [1, 0]"] ;
476 -> 478 ;
479 [label="x[7] <= 198999.469\ngini = 0.312\nsamples = 31\nvalue = [25, 6]"] ;
475 -> 479 ;
480 [label="x[7] <= 142811.312\ngini = 0.278\nsamples = 30\nvalue = [25, 5]"] ;
479 -> 480 ;
481 [label="x[7] <= 135997.195\ngini = 0.351\nsamples = 22\nvalue = [17, 5]"] ;
480 -> 481 ;
482 [label="x[0] <= 723.5\ngini = 0.188\nsamples = 19\nvalue = [17, 2]"] ;
481 -> 482 ;
483 [label="gini = 0.0\nsamples = 13\nvalue = [13, 0]"] ;
482 -> 483 ;
484 [label="x[2] <= 3.5\ngini = 0.444\nsamples = 6\nvalue = [4, 2]"] ;
482 -> 484 ;
485 [label="gini = 0.0\nsamples = 3\nvalue = [3, 0]"] ;
484 -> 485 ;
486 [label="x[2] <= 7.5\ngini = 0.444\nsamples = 3\nvalue = [1, 2]"] ;
484 -> 486 ;
487 [label="gini = 0.0\nsamples = 2\nvalue = [0, 2]"] ;
486 -> 487 ;
488 [label="gini = 0.0\nsamples = 1\nvalue = [1, 0]"] ;
486 -> 488 ;
489 [label="gini = 0.0\nsamples = 3\nvalue = [0, 3]"] ;
481 -> 489 ;
490 [label="gini = 0.0\nsamples = 8\nvalue = [8, 0]"] ;
480 -> 490 ;
491 [label="gini = 0.0\nsamples = 1\nvalue = [0, 1]"] ;
479 -> 491 ;
492 [label="gini = 0.0\nsamples = 3\nvalue = [0, 3]"] ;
474 -> 492 ;
493 [label="gini = 0.0\nsamples = 4\nvalue = [0, 4]"] ;
473 -> 493 ;
494 [label="x[6] <= 0.5\ngini = 0.228\nsamples = 183\nvalue = [159, 24]"] ;
472 -> 494 ;
495 [label="x[7] <= 93453.195\ngini = 0.352\nsamples = 79\nvalue = [61, 18]"] ;
494 -> 495 ;
496 [label="x[0] <= 531.0\ngini = 0.17\nsamples = 32\nvalue = [29, 3]"] ;
495 -> 496 ;
497 [label="x[0] <= 467.0\ngini = 0.5\nsamples = 2\nvalue = [1, 1]"] ;
496 -> 497 ;
498 [label="gini = 0.0\nsamples = 1\nvalue = [1, 0]"] ;
497 -> 498 ;
499 [label="gini = 0.0\nsamples = 1\nvalue = [0, 1]"] ;
497 -> 499 ;
500 [label="x[0] <= 823.5\ngini = 0.124\nsamples = 30\nvalue = [28, 2]"] ;
496 -> 500 ;
501 [label="x[2] <= 3.5\ngini = 0.071\nsamples = 27\nvalue = [26, 1]"] ;
500 -> 501 ;
502 [label="x[3] <= 141945.156\ngini = 0.278\nsamples = 6\nvalue = [5, 1]"] ;
501 -> 502 ;
503 [label="gini = 0.0\nsamples = 5\nvalue = [5, 0]"] ;
502 -> 503 ;
504 [label="gini = 0.0\nsamples = 1\nvalue = [0, 1]"] ;
502 -> 504 ;
505 [label="gini = 0.0\nsamples = 21\nvalue = [21, 0]"] ;
501 -> 505 ;
506 [label="x[0] <= 847.0\ngini = 0.444\nsamples = 3\nvalue = [2, 1]"] ;
500 -> 506 ;
507 [label="gini = 0.0\nsamples = 1\nvalue = [0, 1]"] ;
506 -> 507 ;
508 [label="gini = 0.0\nsamples = 2\nvalue = [2, 0]"] ;
506 -> 508 ;
509 [label="x[7] <= 99396.789\ngini = 0.435\nsamples = 47\nvalue = [32, 15]"] ;
495 -> 509 ;
510 [label="gini = 0.0\nsamples = 3\nvalue = [0, 3]"] ;
509 -> 510 ;
511 [label="x[0] <= 759.5\ngini = 0.397\nsamples = 44\nvalue = [32, 12]"] ;
509 -> 511 ;
512 [label="x[0] <= 748.5\ngini = 0.444\nsamples = 36\nvalue = [24, 12]"] ;
511 -> 512 ;
513 [label="x[9] <= 0.5\ngini = 0.415\nsamples = 34\nvalue = [24, 10]"] ;
512 -> 513 ;
514 [label="x[0] <= 697.5\ngini = 0.476\nsamples = 23\nvalue = [14, 9]"] ;
513 -> 514 ;
515 [label="x[5] <= 0.5\ngini = 0.499\nsamples = 19\nvalue = [10, 9]"] ;
514 -> 515 ;
516 [label="gini = 0.0\nsamples = 2\nvalue = [0, 2]"] ;
515 -> 516 ;
517 [label="x[2] <= 2.5\ngini = 0.484\nsamples = 17\nvalue = [10, 7]"] ;
515 -> 517 ;
518 [label="x[1] <= 40.5\ngini = 0.375\nsamples = 4\nvalue = [1, 3]"] ;
517 -> 518 ;
519 [label="x[3] <= 121249.875\ngini = 0.5\nsamples = 2\nvalue = [1, 1]"] ;
518 -> 519 ;
520 [label="gini = 0.0\nsamples = 1\nvalue = [0, 1]"] ;
519 -> 520 ;
521 [label="gini = 0.0\nsamples = 1\nvalue = [1, 0]"] ;
519 -> 521 ;
522 [label="gini = 0.0\nsamples = 2\nvalue = [0, 2]"] ;
518 -> 522 ;
523 [label="x[2] <= 8.5\ngini = 0.426\nsamples = 13\nvalue = [9, 4]"] ;
517 -> 523 ;
524 [label="x[3] <= 123179.547\ngini = 0.219\nsamples = 8\nvalue = [7, 1]"] ;
523 -> 524 ;
525 [label="x[0] <= 596.0\ngini = 0.444\nsamples = 3\nvalue = [2, 1]"] ;
524 -> 525 ;
526 [label="gini = 0.0\nsamples = 1\nvalue = [0, 1]"] ;
525 -> 526 ;
527 [label="gini = 0.0\nsamples = 2\nvalue = [2, 0]"] ;
525 -> 527 ;
528 [label="gini = 0.0\nsamples = 5\nvalue = [5, 0]"] ;
524 -> 528 ;
529 [label="x[0] <= 559.5\ngini = 0.48\nsamples = 5\nvalue = [2, 3]"] ;
523 -> 529 ;
530 [label="x[3] <= 138476.398\ngini = 0.444\nsamples = 3\nvalue = [2, 1]"] ;
529 -> 530 ;
531 [label="gini = 0.0\nsamples = 2\nvalue = [2, 0]"] ;
530 -> 531 ;
532 [label="gini = 0.0\nsamples = 1\nvalue = [0, 1]"] ;
530 -> 532 ;
533 [label="gini = 0.0\nsamples = 2\nvalue = [0, 2]"] ;
529 -> 533 ;
534 [label="gini = 0.0\nsamples = 4\nvalue = [4, 0]"] ;
514 -> 534 ;
535 [label="x[0] <= 712.5\ngini = 0.165\nsamples = 11\nvalue = [10, 1]"] ;
513 -> 535 ;
536 [label="gini = 0.0\nsamples = 10\nvalue = [10, 0]"] ;
535 -> 536 ;
537 [label="gini = 0.0\nsamples = 1\nvalue = [0, 1]"] ;
535 -> 537 ;
538 [label="gini = 0.0\nsamples = 2\nvalue = [0, 2]"] ;
512 -> 538 ;
539 [label="gini = 0.0\nsamples = 8\nvalue = [8, 0]"] ;
511 -> 539 ;
540 [label="x[0] <= 843.0\ngini = 0.109\nsamples = 104\nvalue = [98, 6]"] ;
494 -> 540 ;
541 [label="x[7] <= 103867.562\ngini = 0.094\nsamples = 101\nvalue = [96, 5]"] ;
540 -> 541 ;
542 [label="x[7] <= 103735.477\ngini = 0.158\nsamples = 58\nvalue = [53, 5]"] ;
541 -> 542 ;
543 [label="x[2] <= 0.5\ngini = 0.131\nsamples = 57\nvalue = [53, 4]"] ;
542 -> 543 ;
544 [label="x[3] <= 117049.527\ngini = 0.5\nsamples = 2\nvalue = [1, 1]"] ;
543 -> 544 ;
545 [label="gini = 0.0\nsamples = 1\nvalue = [1, 0]"] ;
544 -> 545 ;
546 [label="gini = 0.0\nsamples = 1\nvalue = [0, 1]"] ;
544 -> 546 ;
547 [label="x[3] <= 138485.445\ngini = 0.103\nsamples = 55\nvalue = [52, 3]"] ;
543 -> 547 ;
548 [label="gini = 0.0\nsamples = 38\nvalue = [38, 0]"] ;
547 -> 548 ;
549 [label="x[7] <= 96854.0\ngini = 0.291\nsamples = 17\nvalue = [14, 3]"] ;
547 -> 549 ;
550 [label="x[2] <= 4.5\ngini = 0.219\nsamples = 16\nvalue = [14, 2]"] ;
549 -> 550 ;
551 [label="x[3] <= 151888.117\ngini = 0.408\nsamples = 7\nvalue = [5, 2]"] ;
550 -> 551 ;
552 [label="x[0] <= 616.5\ngini = 0.444\nsamples = 3\nvalue = [1, 2]"] ;
551 -> 552 ;
553 [label="gini = 0.0\nsamples = 1\nvalue = [1, 0]"] ;
552 -> 553 ;
554 [label="gini = 0.0\nsamples = 2\nvalue = [0, 2]"] ;
552 -> 554 ;
555 [label="gini = 0.0\nsamples = 4\nvalue = [4, 0]"] ;
551 -> 555 ;
556 [label="gini = 0.0\nsamples = 9\nvalue = [9, 0]"] ;
550 -> 556 ;
557 [label="gini = 0.0\nsamples = 1\nvalue = [0, 1]"] ;
549 -> 557 ;
558 [label="gini = 0.0\nsamples = 1\nvalue = [0, 1]"] ;
542 -> 558 ;
559 [label="gini = 0.0\nsamples = 43\nvalue = [43, 0]"] ;
541 -> 559 ;
560 [label="x[3] <= 116327.262\ngini = 0.444\nsamples = 3\nvalue = [2, 1]"] ;
540 -> 560 ;
561 [label="gini = 0.0\nsamples = 1\nvalue = [0, 1]"] ;
560 -> 561 ;
562 [label="gini = 0.0\nsamples = 2\nvalue = [2, 0]"] ;
560 -> 562 ;
563 [label="gini = 0.0\nsamples = 3\nvalue = [0, 3]"] ;
471 -> 563 ;
564 [label="x[10] <= 0.5\ngini = 0.437\nsamples = 59\nvalue = [40, 19]"] ;
216 -> 564 ;
565 [label="x[2] <= 1.5\ngini = 0.499\nsamples = 23\nvalue = [11, 12]"] ;
564 -> 565 ;
566 [label="x[3] <= 203171.914\ngini = 0.375\nsamples = 8\nvalue = [6, 2]"] ;
565 -> 566 ;
567 [label="gini = 0.0\nsamples = 6\nvalue = [6, 0]"] ;
566 -> 567 ;
568 [label="gini = 0.0\nsamples = 2\nvalue = [0, 2]"] ;
566 -> 568 ;
569 [label="x[6] <= 0.5\ngini = 0.444\nsamples = 15\nvalue = [5, 10]"] ;
565 -> 569 ;
570 [label="x[0] <= 537.0\ngini = 0.219\nsamples = 8\nvalue = [1, 7]"] ;
569 -> 570 ;
571 [label="x[0] <= 491.5\ngini = 0.5\nsamples = 2\nvalue = [1, 1]"] ;
570 -> 571 ;
572 [label="gini = 0.0\nsamples = 1\nvalue = [0, 1]"] ;
571 -> 572 ;
573 [label="gini = 0.0\nsamples = 1\nvalue = [1, 0]"] ;
571 -> 573 ;
574 [label="gini = 0.0\nsamples = 6\nvalue = [0, 6]"] ;
570 -> 574 ;
575 [label="x[7] <= 67689.816\ngini = 0.49\nsamples = 7\nvalue = [4, 3]"] ;
569 -> 575 ;
576 [label="x[1] <= 38.0\ngini = 0.375\nsamples = 4\nvalue = [1, 3]"] ;
575 -> 576 ;
577 [label="gini = 0.0\nsamples = 3\nvalue = [0, 3]"] ;
576 -> 577 ;
578 [label="gini = 0.0\nsamples = 1\nvalue = [1, 0]"] ;
576 -> 578 ;
579 [label="gini = 0.0\nsamples = 3\nvalue = [3, 0]"] ;
575 -> 579 ;
580 [label="x[1] <= 38.5\ngini = 0.313\nsamples = 36\nvalue = [29, 7]"] ;
564 -> 580 ;
581 [label="x[7] <= 86405.359\ngini = 0.18\nsamples = 30\nvalue = [27, 3]"] ;
580 -> 581 ;
582 [label="x[9] <= 0.5\ngini = 0.397\nsamples = 11\nvalue = [8, 3]"] ;
581 -> 582 ;
583 [label="x[5] <= 0.5\ngini = 0.48\nsamples = 5\nvalue = [2, 3]"] ;
582 -> 583 ;
584 [label="gini = 0.0\nsamples = 3\nvalue = [0, 3]"] ;
583 -> 584 ;
585 [label="gini = 0.0\nsamples = 2\nvalue = [2, 0]"] ;
583 -> 585 ;
586 [label="gini = 0.0\nsamples = 6\nvalue = [6, 0]"] ;
582 -> 586 ;
587 [label="gini = 0.0\nsamples = 19\nvalue = [19, 0]"] ;
581 -> 587 ;
588 [label="x[0] <= 547.0\ngini = 0.444\nsamples = 6\nvalue = [2, 4]"] ;
580 -> 588 ;
589 [label="gini = 0.0\nsamples = 2\nvalue = [2, 0]"] ;
588 -> 589 ;
590 [label="gini = 0.0\nsamples = 4\nvalue = [0, 4]"] ;
588 -> 590 ;
591 [label="x[3] <= 98383.031\ngini = 0.385\nsamples = 635\nvalue = [470, 165]"] ;
3 -> 591 ;
592 [label="x[0] <= 518.5\ngini = 0.142\nsamples = 117\nvalue = [108, 9]"] ;
591 -> 592 ;
593 [label="x[3] <= 79470.75\ngini = 0.42\nsamples = 10\nvalue = [7, 3]"] ;
592 -> 593 ;
594 [label="gini = 0.0\nsamples = 5\nvalue = [5, 0]"] ;
593 -> 594 ;
595 [label="x[10] <= 0.5\ngini = 0.48\nsamples = 5\nvalue = [2, 3]"] ;
593 -> 595 ;
596 [label="gini = 0.0\nsamples = 2\nvalue = [2, 0]"] ;
595 -> 596 ;
597 [label="gini = 0.0\nsamples = 3\nvalue = [0, 3]"] ;
595 -> 597 ;
598 [label="x[7] <= 198736.258\ngini = 0.106\nsamples = 107\nvalue = [101, 6]"] ;
592 -> 598 ;
599 [label="x[1] <= 21.0\ngini = 0.091\nsamples = 105\nvalue = [100, 5]"] ;
598 -> 599 ;
600 [label="x[10] <= 0.5\ngini = 0.5\nsamples = 2\nvalue = [1, 1]"] ;
599 -> 600 ;
601 [label="gini = 0.0\nsamples = 1\nvalue = [0, 1]"] ;
600 -> 601 ;
602 [label="gini = 0.0\nsamples = 1\nvalue = [1, 0]"] ;
600 -> 602 ;
603 [label="x[0] <= 849.5\ngini = 0.075\nsamples = 103\nvalue = [99.0, 4.0]"] ;
599 -> 603 ;
604 [label="x[5] <= 0.5\ngini = 0.059\nsamples = 99\nvalue = [96, 3]"] ;
603 -> 604 ;
605 [label="x[7] <= 184754.625\ngini = 0.137\nsamples = 27\nvalue = [25, 2]"] ;
604 -> 605 ;
606 [label="x[7] <= 44066.34\ngini = 0.08\nsamples = 24\nvalue = [23, 1]"] ;
605 -> 606 ;
607 [label="x[0] <= 709.0\ngini = 0.32\nsamples = 5\nvalue = [4, 1]"] ;
606 -> 607 ;
608 [label="gini = 0.0\nsamples = 1\nvalue = [0, 1]"] ;
607 -> 608 ;
609 [label="gini = 0.0\nsamples = 4\nvalue = [4, 0]"] ;
607 -> 609 ;
610 [label="gini = 0.0\nsamples = 19\nvalue = [19, 0]"] ;
606 -> 610 ;
611 [label="x[7] <= 187490.125\ngini = 0.444\nsamples = 3\nvalue = [2, 1]"] ;
605 -> 611 ;
612 [label="gini = 0.0\nsamples = 1\nvalue = [0, 1]"] ;
611 -> 612 ;
613 [label="gini = 0.0\nsamples = 2\nvalue = [2, 0]"] ;
611 -> 613 ;
614 [label="x[2] <= 8.5\ngini = 0.027\nsamples = 72\nvalue = [71, 1]"] ;
604 -> 614 ;
615 [label="gini = 0.0\nsamples = 62\nvalue = [62, 0]"] ;
614 -> 615 ;
616 [label="x[3] <= 67589.445\ngini = 0.18\nsamples = 10\nvalue = [9, 1]"] ;
614 -> 616 ;
617 [label="gini = 0.0\nsamples = 1\nvalue = [0, 1]"] ;
616 -> 617 ;
618 [label="gini = 0.0\nsamples = 9\nvalue = [9, 0]"] ;
616 -> 618 ;
619 [label="x[7] <= 22232.755\ngini = 0.375\nsamples = 4\nvalue = [3, 1]"] ;
603 -> 619 ;
620 [label="gini = 0.0\nsamples = 1\nvalue = [0, 1]"] ;
619 -> 620 ;
621 [label="gini = 0.0\nsamples = 3\nvalue = [3, 0]"] ;
619 -> 621 ;
622 [label="x[0] <= 662.5\ngini = 0.5\nsamples = 2\nvalue = [1, 1]"] ;
598 -> 622 ;
623 [label="gini = 0.0\nsamples = 1\nvalue = [0, 1]"] ;
622 -> 623 ;
624 [label="gini = 0.0\nsamples = 1\nvalue = [1, 0]"] ;
622 -> 624 ;
625 [label="x[3] <= 146501.453\ngini = 0.421\nsamples = 518\nvalue = [362, 156]"] ;
591 -> 625 ;
626 [label="x[1] <= 38.5\ngini = 0.454\nsamples = 420\nvalue = [274, 146]"] ;
625 -> 626 ;
627 [label="x[10] <= 0.5\ngini = 0.416\nsamples = 318\nvalue = [224.0, 94.0]"] ;
626 -> 627 ;
628 [label="x[7] <= 73658.98\ngini = 0.47\nsamples = 148\nvalue = [92, 56]"] ;
627 -> 628 ;
629 [label="x[0] <= 680.5\ngini = 0.491\nsamples = 46\nvalue = [20.0, 26.0]"] ;
628 -> 629 ;
630 [label="x[6] <= 0.5\ngini = 0.48\nsamples = 25\nvalue = [15, 10]"] ;
629 -> 630 ;
631 [label="x[2] <= 9.5\ngini = 0.49\nsamples = 14\nvalue = [6, 8]"] ;
630 -> 631 ;
632 [label="x[3] <= 142264.031\ngini = 0.444\nsamples = 12\nvalue = [4, 8]"] ;
631 -> 632 ;
633 [label="x[0] <= 677.0\ngini = 0.397\nsamples = 11\nvalue = [3, 8]"] ;
632 -> 633 ;
634 [label="x[3] <= 108052.965\ngini = 0.32\nsamples = 10\nvalue = [2, 8]"] ;
633 -> 634 ;
635 [label="x[1] <= 28.5\ngini = 0.5\nsamples = 4\nvalue = [2, 2]"] ;
634 -> 635 ;
636 [label="gini = 0.0\nsamples = 2\nvalue = [0, 2]"] ;
635 -> 636 ;
637 [label="gini = 0.0\nsamples = 2\nvalue = [2, 0]"] ;
635 -> 637 ;
638 [label="gini = 0.0\nsamples = 6\nvalue = [0, 6]"] ;
634 -> 638 ;
639 [label="gini = 0.0\nsamples = 1\nvalue = [1, 0]"] ;
633 -> 639 ;
640 [label="gini = 0.0\nsamples = 1\nvalue = [1, 0]"] ;
632 -> 640 ;
641 [label="gini = 0.0\nsamples = 2\nvalue = [2, 0]"] ;
631 -> 641 ;
642 [label="x[2] <= 9.0\ngini = 0.298\nsamples = 11\nvalue = [9, 2]"] ;
630 -> 642 ;
643 [label="x[7] <= 54998.869\ngini = 0.18\nsamples = 10\nvalue = [9, 1]"] ;
642 -> 643 ;
644 [label="gini = 0.0\nsamples = 7\nvalue = [7, 0]"] ;
643 -> 644 ;
645 [label="x[7] <= 60166.355\ngini = 0.444\nsamples = 3\nvalue = [2, 1]"] ;
643 -> 645 ;
646 [label="gini = 0.0\nsamples = 1\nvalue = [0, 1]"] ;
645 -> 646 ;
647 [label="gini = 0.0\nsamples = 2\nvalue = [2, 0]"] ;
645 -> 647 ;
648 [label="gini = 0.0\nsamples = 1\nvalue = [0, 1]"] ;
642 -> 648 ;
649 [label="x[3] <= 106044.816\ngini = 0.363\nsamples = 21\nvalue = [5, 16]"] ;
629 -> 649 ;
650 [label="x[1] <= 32.5\ngini = 0.32\nsamples = 5\nvalue = [4, 1]"] ;
649 -> 650 ;
651 [label="gini = 0.0\nsamples = 1\nvalue = [0, 1]"] ;
650 -> 651 ;
652 [label="gini = 0.0\nsamples = 4\nvalue = [4, 0]"] ;
650 -> 652 ;
653 [label="x[7] <= 4312.55\ngini = 0.117\nsamples = 16\nvalue = [1, 15]"] ;
649 -> 653 ;
654 [label="gini = 0.0\nsamples = 1\nvalue = [1, 0]"] ;
653 -> 654 ;
655 [label="gini = 0.0\nsamples = 15\nvalue = [0, 15]"] ;
653 -> 655 ;
656 [label="x[3] <= 117430.59\ngini = 0.415\nsamples = 102\nvalue = [72, 30]"] ;
628 -> 656 ;
657 [label="x[0] <= 606.5\ngini = 0.494\nsamples = 45\nvalue = [25, 20]"] ;
656 -> 657 ;
658 [label="x[3] <= 102398.645\ngini = 0.408\nsamples = 14\nvalue = [4, 10]"] ;
657 -> 658 ;
659 [label="gini = 0.0\nsamples = 2\nvalue = [2, 0]"] ;
658 -> 659 ;
660 [label="x[6] <= 0.5\ngini = 0.278\nsamples = 12\nvalue = [2, 10]"] ;
658 -> 660 ;
661 [label="gini = 0.0\nsamples = 7\nvalue = [0, 7]"] ;
660 -> 661 ;
662 [label="x[1] <= 32.0\ngini = 0.48\nsamples = 5\nvalue = [2, 3]"] ;
660 -> 662 ;
663 [label="x[7] <= 161505.016\ngini = 0.444\nsamples = 3\nvalue = [2, 1]"] ;
662 -> 663 ;
664 [label="gini = 0.0\nsamples = 2\nvalue = [2, 0]"] ;
663 -> 664 ;
665 [label="gini = 0.0\nsamples = 1\nvalue = [0, 1]"] ;
663 -> 665 ;
666 [label="gini = 0.0\nsamples = 2\nvalue = [0, 2]"] ;
662 -> 666 ;
667 [label="x[1] <= 32.5\ngini = 0.437\nsamples = 31\nvalue = [21, 10]"] ;
657 -> 667 ;
668 [label="x[1] <= 24.5\ngini = 0.133\nsamples = 14\nvalue = [13, 1]"] ;
667 -> 668 ;
669 [label="x[1] <= 23.5\ngini = 0.444\nsamples = 3\nvalue = [2, 1]"] ;
668 -> 669 ;
670 [label="gini = 0.0\nsamples = 2\nvalue = [2, 0]"] ;
669 -> 670 ;
671 [label="gini = 0.0\nsamples = 1\nvalue = [0, 1]"] ;
669 -> 671 ;
672 [label="gini = 0.0\nsamples = 11\nvalue = [11, 0]"] ;
668 -> 672 ;
673 [label="x[3] <= 112647.352\ngini = 0.498\nsamples = 17\nvalue = [8, 9]"] ;
667 -> 673 ;
674 [label="x[0] <= 621.0\ngini = 0.444\nsamples = 12\nvalue = [4, 8]"] ;
673 -> 674 ;
675 [label="gini = 0.0\nsamples = 2\nvalue = [2, 0]"] ;
674 -> 675 ;
676 [label="x[7] <= 157634.594\ngini = 0.32\nsamples = 10\nvalue = [2, 8]"] ;
674 -> 676 ;
677 [label="gini = 0.0\nsamples = 6\nvalue = [0, 6]"] ;
676 -> 677 ;
678 [label="x[5] <= 0.5\ngini = 0.5\nsamples = 4\nvalue = [2, 2]"] ;
676 -> 678 ;
679 [label="gini = 0.0\nsamples = 2\nvalue = [0, 2]"] ;
678 -> 679 ;
680 [label="gini = 0.0\nsamples = 2\nvalue = [2, 0]"] ;
678 -> 680 ;
681 [label="x[0] <= 663.5\ngini = 0.32\nsamples = 5\nvalue = [4, 1]"] ;
673 -> 681 ;
682 [label="gini = 0.0\nsamples = 1\nvalue = [0, 1]"] ;
681 -> 682 ;
683 [label="gini = 0.0\nsamples = 4\nvalue = [4, 0]"] ;
681 -> 683 ;
684 [label="x[0] <= 436.5\ngini = 0.289\nsamples = 57\nvalue = [47, 10]"] ;
656 -> 684 ;
685 [label="gini = 0.0\nsamples = 1\nvalue = [0, 1]"] ;
684 -> 685 ;
686 [label="x[1] <= 22.0\ngini = 0.27\nsamples = 56\nvalue = [47, 9]"] ;
684 -> 686 ;
687 [label="gini = 0.0\nsamples = 1\nvalue = [0, 1]"] ;
686 -> 687 ;
688 [label="x[0] <= 623.5\ngini = 0.249\nsamples = 55\nvalue = [47, 8]"] ;
686 -> 688 ;
689 [label="x[1] <= 37.5\ngini = 0.083\nsamples = 23\nvalue = [22, 1]"] ;
688 -> 689 ;
690 [label="gini = 0.0\nsamples = 19\nvalue = [19, 0]"] ;
689 -> 690 ;
691 [label="x[2] <= 1.5\ngini = 0.375\nsamples = 4\nvalue = [3, 1]"] ;
689 -> 691 ;
692 [label="gini = 0.0\nsamples = 1\nvalue = [0, 1]"] ;
691 -> 692 ;
693 [label="gini = 0.0\nsamples = 3\nvalue = [3, 0]"] ;
691 -> 693 ;
694 [label="x[0] <= 772.5\ngini = 0.342\nsamples = 32\nvalue = [25, 7]"] ;
688 -> 694 ;
695 [label="x[0] <= 736.0\ngini = 0.434\nsamples = 22\nvalue = [15.0, 7.0]"] ;
694 -> 695 ;
696 [label="x[1] <= 30.5\ngini = 0.332\nsamples = 19\nvalue = [15, 4]"] ;
695 -> 696 ;
697 [label="gini = 0.0\nsamples = 9\nvalue = [9, 0]"] ;
696 -> 697 ;
698 [label="x[0] <= 701.0\ngini = 0.48\nsamples = 10\nvalue = [6, 4]"] ;
696 -> 698 ;
699 [label="x[6] <= 0.5\ngini = 0.444\nsamples = 6\nvalue = [2, 4]"] ;
698 -> 699 ;
700 [label="gini = 0.0\nsamples = 2\nvalue = [2, 0]"] ;
699 -> 700 ;
701 [label="gini = 0.0\nsamples = 4\nvalue = [0, 4]"] ;
699 -> 701 ;
702 [label="gini = 0.0\nsamples = 4\nvalue = [4, 0]"] ;
698 -> 702 ;
703 [label="gini = 0.0\nsamples = 3\nvalue = [0, 3]"] ;
695 -> 703 ;
704 [label="gini = 0.0\nsamples = 10\nvalue = [10, 0]"] ;
694 -> 704 ;
705 [label="x[6] <= 0.5\ngini = 0.347\nsamples = 170\nvalue = [132, 38]"] ;
627 -> 705 ;
706 [label="x[7] <= 31344.114\ngini = 0.43\nsamples = 83\nvalue = [57, 26]"] ;
705 -> 706 ;
707 [label="gini = 0.0\nsamples = 11\nvalue = [11, 0]"] ;
706 -> 707 ;
708 [label="x[0] <= 471.5\ngini = 0.461\nsamples = 72\nvalue = [46, 26]"] ;
706 -> 708 ;
709 [label="gini = 0.0\nsamples = 2\nvalue = [0, 2]"] ;
708 -> 709 ;
710 [label="x[0] <= 508.5\ngini = 0.451\nsamples = 70\nvalue = [46, 24]"] ;
708 -> 710 ;
711 [label="gini = 0.0\nsamples = 7\nvalue = [7, 0]"] ;
710 -> 711 ;
712 [label="x[7] <= 71387.875\ngini = 0.472\nsamples = 63\nvalue = [39, 24]"] ;
710 -> 712 ;
713 [label="x[7] <= 58642.635\ngini = 0.499\nsamples = 19\nvalue = [9, 10]"] ;
712 -> 713 ;
714 [label="x[1] <= 28.5\ngini = 0.48\nsamples = 15\nvalue = [9, 6]"] ;
713 -> 714 ;
715 [label="gini = 0.0\nsamples = 3\nvalue = [3, 0]"] ;
714 -> 715 ;
716 [label="x[3] <= 121989.367\ngini = 0.5\nsamples = 12\nvalue = [6, 6]"] ;
714 -> 716 ;
717 [label="x[3] <= 111859.203\ngini = 0.408\nsamples = 7\nvalue = [2, 5]"] ;
716 -> 717 ;
718 [label="x[2] <= 7.0\ngini = 0.444\nsamples = 3\nvalue = [2, 1]"] ;
717 -> 718 ;
719 [label="gini = 0.0\nsamples = 2\nvalue = [2, 0]"] ;
718 -> 719 ;
720 [label="gini = 0.0\nsamples = 1\nvalue = [0, 1]"] ;
718 -> 720 ;
721 [label="gini = 0.0\nsamples = 4\nvalue = [0, 4]"] ;
717 -> 721 ;
722 [label="x[7] <= 45205.895\ngini = 0.32\nsamples = 5\nvalue = [4, 1]"] ;
716 -> 722 ;
723 [label="gini = 0.0\nsamples = 3\nvalue = [3, 0]"] ;
722 -> 723 ;
724 [label="x[0] <= 702.0\ngini = 0.5\nsamples = 2\nvalue = [1, 1]"] ;
722 -> 724 ;
725 [label="gini = 0.0\nsamples = 1\nvalue = [0, 1]"] ;
724 -> 725 ;
726 [label="gini = 0.0\nsamples = 1\nvalue = [1, 0]"] ;
724 -> 726 ;
727 [label="gini = 0.0\nsamples = 4\nvalue = [0, 4]"] ;
713 -> 727 ;
728 [label="x[7] <= 146246.797\ngini = 0.434\nsamples = 44\nvalue = [30.0, 14.0]"] ;
712 -> 728 ;
729 [label="x[0] <= 647.0\ngini = 0.337\nsamples = 28\nvalue = [22, 6]"] ;
728 -> 729 ;
730 [label="x[7] <= 106513.922\ngini = 0.5\nsamples = 10\nvalue = [5, 5]"] ;
729 -> 730 ;
731 [label="x[7] <= 76872.312\ngini = 0.408\nsamples = 7\nvalue = [2, 5]"] ;
730 -> 731 ;
732 [label="gini = 0.0\nsamples = 1\nvalue = [1, 0]"] ;
731 -> 732 ;
733 [label="x[3] <= 143165.945\ngini = 0.278\nsamples = 6\nvalue = [1, 5]"] ;
731 -> 733 ;
734 [label="gini = 0.0\nsamples = 5\nvalue = [0, 5]"] ;
733 -> 734 ;
735 [label="gini = 0.0\nsamples = 1\nvalue = [1, 0]"] ;
733 -> 735 ;
736 [label="gini = 0.0\nsamples = 3\nvalue = [3, 0]"] ;
730 -> 736 ;
737 [label="x[0] <= 761.5\ngini = 0.105\nsamples = 18\nvalue = [17, 1]"] ;
729 -> 737 ;
738 [label="gini = 0.0\nsamples = 14\nvalue = [14, 0]"] ;
737 -> 738 ;
739 [label="x[0] <= 783.5\ngini = 0.375\nsamples = 4\nvalue = [3, 1]"] ;
737 -> 739 ;
740 [label="gini = 0.0\nsamples = 1\nvalue = [0, 1]"] ;
739 -> 740 ;
741 [label="gini = 0.0\nsamples = 3\nvalue = [3, 0]"] ;
739 -> 741 ;
742 [label="x[3] <= 127668.785\ngini = 0.5\nsamples = 16\nvalue = [8, 8]"] ;
728 -> 742 ;
743 [label="x[3] <= 116787.902\ngini = 0.444\nsamples = 12\nvalue = [4, 8]"] ;
742 -> 743 ;
744 [label="x[1] <= 32.0\ngini = 0.48\nsamples = 5\nvalue = [3, 2]"] ;
743 -> 744 ;
745 [label="gini = 0.0\nsamples = 2\nvalue = [2, 0]"] ;
744 -> 745 ;
746 [label="x[2] <= 3.5\ngini = 0.444\nsamples = 3\nvalue = [1, 2]"] ;
744 -> 746 ;
747 [label="gini = 0.0\nsamples = 1\nvalue = [1, 0]"] ;
746 -> 747 ;
748 [label="gini = 0.0\nsamples = 2\nvalue = [0, 2]"] ;
746 -> 748 ;
749 [label="x[2] <= 7.5\ngini = 0.245\nsamples = 7\nvalue = [1, 6]"] ;
743 -> 749 ;
750 [label="gini = 0.0\nsamples = 6\nvalue = [0, 6]"] ;
749 -> 750 ;
751 [label="gini = 0.0\nsamples = 1\nvalue = [1, 0]"] ;
749 -> 751 ;
752 [label="gini = 0.0\nsamples = 4\nvalue = [4, 0]"] ;
742 -> 752 ;
753 [label="x[7] <= 190804.07\ngini = 0.238\nsamples = 87\nvalue = [75, 12]"] ;
705 -> 753 ;
754 [label="x[3] <= 116463.465\ngini = 0.208\nsamples = 85\nvalue = [75, 10]"] ;
753 -> 754 ;
755 [label="gini = 0.0\nsamples = 30\nvalue = [30, 0]"] ;
754 -> 755 ;
756 [label="x[2] <= 6.5\ngini = 0.298\nsamples = 55\nvalue = [45, 10]"] ;
754 -> 756 ;
757 [label="x[2] <= 2.5\ngini = 0.375\nsamples = 40\nvalue = [30, 10]"] ;
756 -> 757 ;
758 [label="x[0] <= 540.0\ngini = 0.105\nsamples = 18\nvalue = [17, 1]"] ;
757 -> 758 ;
759 [label="gini = 0.0\nsamples = 1\nvalue = [0, 1]"] ;
758 -> 759 ;
760 [label="gini = 0.0\nsamples = 17\nvalue = [17, 0]"] ;
758 -> 760 ;
761 [label="x[7] <= 179515.484\ngini = 0.483\nsamples = 22\nvalue = [13, 9]"] ;
757 -> 761 ;
762 [label="x[7] <= 26451.561\ngini = 0.455\nsamples = 20\nvalue = [13, 7]"] ;
761 -> 762 ;
763 [label="x[0] <= 686.5\ngini = 0.375\nsamples = 4\nvalue = [1, 3]"] ;
762 -> 763 ;
764 [label="gini = 0.0\nsamples = 3\nvalue = [0, 3]"] ;
763 -> 764 ;
765 [label="gini = 0.0\nsamples = 1\nvalue = [1, 0]"] ;
763 -> 765 ;
766 [label="x[3] <= 117071.637\ngini = 0.375\nsamples = 16\nvalue = [12, 4]"] ;
762 -> 766 ;
767 [label="gini = 0.0\nsamples = 1\nvalue = [0, 1]"] ;
766 -> 767 ;
768 [label="x[3] <= 138216.586\ngini = 0.32\nsamples = 15\nvalue = [12, 3]"] ;
766 -> 768 ;
769 [label="gini = 0.0\nsamples = 9\nvalue = [9, 0]"] ;
768 -> 769 ;
770 [label="x[5] <= 0.5\ngini = 0.5\nsamples = 6\nvalue = [3, 3]"] ;
768 -> 770 ;
771 [label="gini = 0.0\nsamples = 3\nvalue = [3, 0]"] ;
770 -> 771 ;
772 [label="gini = 0.0\nsamples = 3\nvalue = [0, 3]"] ;
770 -> 772 ;
773 [label="gini = 0.0\nsamples = 2\nvalue = [0, 2]"] ;
761 -> 773 ;
774 [label="gini = 0.0\nsamples = 15\nvalue = [15, 0]"] ;
756 -> 774 ;
775 [label="gini = 0.0\nsamples = 2\nvalue = [0, 2]"] ;
753 -> 775 ;
776 [label="x[3] <= 142315.25\ngini = 0.5\nsamples = 102\nvalue = [50, 52]"] ;
626 -> 776 ;
777 [label="x[3] <= 133051.562\ngini = 0.499\nsamples = 95\nvalue = [50, 45]"] ;
776 -> 777 ;
778 [label="x[0] <= 705.0\ngini = 0.499\nsamples = 80\nvalue = [38, 42]"] ;
777 -> 778 ;
779 [label="x[2] <= 1.5\ngini = 0.476\nsamples = 59\nvalue = [23, 36]"] ;
778 -> 779 ;
780 [label="x[10] <= 0.5\ngini = 0.219\nsamples = 16\nvalue = [2, 14]"] ;
779 -> 780 ;
781 [label="x[3] <= 110260.074\ngini = 0.48\nsamples = 5\nvalue = [2, 3]"] ;
780 -> 781 ;
782 [label="gini = 0.0\nsamples = 2\nvalue = [2, 0]"] ;
781 -> 782 ;
783 [label="gini = 0.0\nsamples = 3\nvalue = [0, 3]"] ;
781 -> 783 ;
784 [label="gini = 0.0\nsamples = 11\nvalue = [0, 11]"] ;
780 -> 784 ;
785 [label="x[3] <= 124314.371\ngini = 0.5\nsamples = 43\nvalue = [21, 22]"] ;
779 -> 785 ;
786 [label="x[7] <= 122934.938\ngini = 0.477\nsamples = 28\nvalue = [17, 11]"] ;
785 -> 786 ;
787 [label="x[7] <= 28965.524\ngini = 0.5\nsamples = 20\nvalue = [10, 10]"] ;
786 -> 787 ;
788 [label="x[6] <= 0.5\ngini = 0.32\nsamples = 5\nvalue = [4, 1]"] ;
787 -> 788 ;
789 [label="x[1] <= 41.0\ngini = 0.5\nsamples = 2\nvalue = [1, 1]"] ;
788 -> 789 ;
790 [label="gini = 0.0\nsamples = 1\nvalue = [0, 1]"] ;
789 -> 790 ;
791 [label="gini = 0.0\nsamples = 1\nvalue = [1, 0]"] ;
789 -> 791 ;
792 [label="gini = 0.0\nsamples = 3\nvalue = [3, 0]"] ;
788 -> 792 ;
793 [label="x[7] <= 51117.93\ngini = 0.48\nsamples = 15\nvalue = [6, 9]"] ;
787 -> 793 ;
794 [label="gini = 0.0\nsamples = 3\nvalue = [0, 3]"] ;
793 -> 794 ;
795 [label="x[7] <= 86036.246\ngini = 0.5\nsamples = 12\nvalue = [6, 6]"] ;
793 -> 795 ;
796 [label="gini = 0.0\nsamples = 3\nvalue = [3, 0]"] ;
795 -> 796 ;
797 [label="x[1] <= 40.5\ngini = 0.444\nsamples = 9\nvalue = [3, 6]"] ;
795 -> 797 ;
798 [label="gini = 0.0\nsamples = 4\nvalue = [0, 4]"] ;
797 -> 798 ;
799 [label="x[0] <= 569.0\ngini = 0.48\nsamples = 5\nvalue = [3, 2]"] ;
797 -> 799 ;
800 [label="gini = 0.0\nsamples = 2\nvalue = [2, 0]"] ;
799 -> 800 ;
801 [label="x[10] <= 0.5\ngini = 0.444\nsamples = 3\nvalue = [1, 2]"] ;
799 -> 801 ;
802 [label="gini = 0.0\nsamples = 2\nvalue = [0, 2]"] ;
801 -> 802 ;
803 [label="gini = 0.0\nsamples = 1\nvalue = [1, 0]"] ;
801 -> 803 ;
804 [label="x[6] <= 0.5\ngini = 0.219\nsamples = 8\nvalue = [7, 1]"] ;
786 -> 804 ;
805 [label="gini = 0.0\nsamples = 7\nvalue = [7, 0]"] ;
804 -> 805 ;
806 [label="gini = 0.0\nsamples = 1\nvalue = [0, 1]"] ;
804 -> 806 ;
807 [label="x[6] <= 0.5\ngini = 0.391\nsamples = 15\nvalue = [4, 11]"] ;
785 -> 807 ;
808 [label="x[2] <= 2.5\ngini = 0.165\nsamples = 11\nvalue = [1, 10]"] ;
807 -> 808 ;
809 [label="gini = 0.0\nsamples = 1\nvalue = [1, 0]"] ;
808 -> 809 ;
810 [label="gini = 0.0\nsamples = 10\nvalue = [0, 10]"] ;
808 -> 810 ;
811 [label="x[3] <= 126019.121\ngini = 0.375\nsamples = 4\nvalue = [3, 1]"] ;
807 -> 811 ;
812 [label="gini = 0.0\nsamples = 1\nvalue = [0, 1]"] ;
811 -> 812 ;
813 [label="gini = 0.0\nsamples = 3\nvalue = [3, 0]"] ;
811 -> 813 ;
814 [label="x[10] <= 0.5\ngini = 0.408\nsamples = 21\nvalue = [15, 6]"] ;
778 -> 814 ;
815 [label="x[2] <= 9.5\ngini = 0.142\nsamples = 13\nvalue = [12, 1]"] ;
814 -> 815 ;
816 [label="gini = 0.0\nsamples = 12\nvalue = [12, 0]"] ;
815 -> 816 ;
817 [label="gini = 0.0\nsamples = 1\nvalue = [0, 1]"] ;
815 -> 817 ;
818 [label="x[2] <= 4.5\ngini = 0.469\nsamples = 8\nvalue = [3, 5]"] ;
814 -> 818 ;
819 [label="gini = 0.0\nsamples = 1\nvalue = [1, 0]"] ;
818 -> 819 ;
820 [label="x[2] <= 6.5\ngini = 0.408\nsamples = 7\nvalue = [2, 5]"] ;
818 -> 820 ;
821 [label="gini = 0.0\nsamples = 3\nvalue = [0, 3]"] ;
820 -> 821 ;
822 [label="x[0] <= 801.0\ngini = 0.5\nsamples = 4\nvalue = [2, 2]"] ;
820 -> 822 ;
823 [label="gini = 0.0\nsamples = 2\nvalue = [2, 0]"] ;
822 -> 823 ;
824 [label="gini = 0.0\nsamples = 2\nvalue = [0, 2]"] ;
822 -> 824 ;
825 [label="x[1] <= 39.5\ngini = 0.32\nsamples = 15\nvalue = [12, 3]"] ;
777 -> 825 ;
826 [label="gini = 0.0\nsamples = 2\nvalue = [0, 2]"] ;
825 -> 826 ;
827 [label="x[7] <= 1408.94\ngini = 0.142\nsamples = 13\nvalue = [12, 1]"] ;
825 -> 827 ;
828 [label="gini = 0.0\nsamples = 1\nvalue = [0, 1]"] ;
827 -> 828 ;
829 [label="gini = 0.0\nsamples = 12\nvalue = [12, 0]"] ;
827 -> 829 ;
830 [label="gini = 0.0\nsamples = 7\nvalue = [0, 7]"] ;
776 -> 830 ;
831 [label="x[3] <= 154321.742\ngini = 0.183\nsamples = 98\nvalue = [88, 10]"] ;
625 -> 831 ;
832 [label="x[2] <= 9.5\ngini = 0.286\nsamples = 52\nvalue = [43, 9]"] ;
831 -> 832 ;
833 [label="x[1] <= 38.5\ngini = 0.265\nsamples = 51\nvalue = [43, 8]"] ;
832 -> 833 ;
834 [label="x[0] <= 767.0\ngini = 0.149\nsamples = 37\nvalue = [34, 3]"] ;
833 -> 834 ;
835 [label="x[3] <= 152710.125\ngini = 0.062\nsamples = 31\nvalue = [30, 1]"] ;
834 -> 835 ;
836 [label="gini = 0.0\nsamples = 28\nvalue = [28, 0]"] ;
835 -> 836 ;
837 [label="x[3] <= 152928.273\ngini = 0.444\nsamples = 3\nvalue = [2, 1]"] ;
835 -> 837 ;
838 [label="gini = 0.0\nsamples = 1\nvalue = [0, 1]"] ;
837 -> 838 ;
839 [label="gini = 0.0\nsamples = 2\nvalue = [2, 0]"] ;
837 -> 839 ;
840 [label="x[1] <= 30.0\ngini = 0.444\nsamples = 6\nvalue = [4, 2]"] ;
834 -> 840 ;
841 [label="x[3] <= 151622.367\ngini = 0.444\nsamples = 3\nvalue = [1, 2]"] ;
840 -> 841 ;
842 [label="gini = 0.0\nsamples = 2\nvalue = [0, 2]"] ;
841 -> 842 ;
843 [label="gini = 0.0\nsamples = 1\nvalue = [1, 0]"] ;
841 -> 843 ;
844 [label="gini = 0.0\nsamples = 3\nvalue = [3, 0]"] ;
840 -> 844 ;
845 [label="x[7] <= 168249.742\ngini = 0.459\nsamples = 14\nvalue = [9, 5]"] ;
833 -> 845 ;
846 [label="x[3] <= 154158.438\ngini = 0.375\nsamples = 12\nvalue = [9, 3]"] ;
845 -> 846 ;
847 [label="x[7] <= 60136.199\ngini = 0.298\nsamples = 11\nvalue = [9, 2]"] ;
846 -> 847 ;
848 [label="x[3] <= 151961.992\ngini = 0.5\nsamples = 4\nvalue = [2, 2]"] ;
847 -> 848 ;
849 [label="gini = 0.0\nsamples = 2\nvalue = [0, 2]"] ;
848 -> 849 ;
850 [label="gini = 0.0\nsamples = 2\nvalue = [2, 0]"] ;
848 -> 850 ;
851 [label="gini = 0.0\nsamples = 7\nvalue = [7, 0]"] ;
847 -> 851 ;
852 [label="gini = 0.0\nsamples = 1\nvalue = [0, 1]"] ;
846 -> 852 ;
853 [label="gini = 0.0\nsamples = 2\nvalue = [0, 2]"] ;
845 -> 853 ;
854 [label="gini = 0.0\nsamples = 1\nvalue = [0, 1]"] ;
832 -> 854 ;
855 [label="x[0] <= 798.0\ngini = 0.043\nsamples = 46\nvalue = [45, 1]"] ;
831 -> 855 ;
856 [label="gini = 0.0\nsamples = 41\nvalue = [41, 0]"] ;
855 -> 856 ;
857 [label="x[0] <= 828.0\ngini = 0.32\nsamples = 5\nvalue = [4, 1]"] ;
855 -> 857 ;
858 [label="gini = 0.0\nsamples = 1\nvalue = [0, 1]"] ;
857 -> 858 ;
859 [label="gini = 0.0\nsamples = 4\nvalue = [4, 0]"] ;
857 -> 859 ;
860 [label="x[3] <= 85144.133\ngini = 0.087\nsamples = 2646\nvalue = [2525, 121]"] ;
2 -> 860 ;
861 [label="x[1] <= 36.5\ngini = 0.05\nsamples = 1687\nvalue = [1644, 43]"] ;
860 -> 861 ;
862 [label="x[1] <= 18.5\ngini = 0.033\nsamples = 1139\nvalue = [1120, 19]"] ;
861 -> 862 ;
863 [label="x[7] <= 54274.135\ngini = 0.245\nsamples = 7\nvalue = [6, 1]"] ;
862 -> 863 ;
864 [label="gini = 0.0\nsamples = 4\nvalue = [4, 0]"] ;
863 -> 864 ;
865 [label="x[9] <= 0.5\ngini = 0.444\nsamples = 3\nvalue = [2, 1]"] ;
863 -> 865 ;
866 [label="gini = 0.0\nsamples = 1\nvalue = [0, 1]"] ;
865 -> 866 ;
867 [label="gini = 0.0\nsamples = 2\nvalue = [2, 0]"] ;
865 -> 867 ;
868 [label="x[7] <= 100526.91\ngini = 0.031\nsamples = 1132\nvalue = [1114, 18]"] ;
862 -> 868 ;
869 [label="x[7] <= 100425.266\ngini = 0.048\nsamples = 570\nvalue = [556, 14]"] ;
868 -> 869 ;
870 [label="x[2] <= 0.5\ngini = 0.041\nsamples = 568\nvalue = [556, 12]"] ;
869 -> 870 ;
871 [label="x[1] <= 28.5\ngini = 0.245\nsamples = 14\nvalue = [12, 2]"] ;
870 -> 871 ;
872 [label="x[7] <= 52047.511\ngini = 0.5\nsamples = 4\nvalue = [2, 2]"] ;
871 -> 872 ;
873 [label="gini = 0.0\nsamples = 2\nvalue = [0, 2]"] ;
872 -> 873 ;
874 [label="gini = 0.0\nsamples = 2\nvalue = [2, 0]"] ;
872 -> 874 ;
875 [label="gini = 0.0\nsamples = 10\nvalue = [10, 0]"] ;
871 -> 875 ;
876 [label="x[7] <= 89576.992\ngini = 0.035\nsamples = 554\nvalue = [544, 10]"] ;
870 -> 876 ;
877 [label="x[7] <= 19434.04\ngini = 0.021\nsamples = 482\nvalue = [477, 5]"] ;
876 -> 877 ;
878 [label="x[7] <= 19335.38\ngini = 0.059\nsamples = 131\nvalue = [127, 4]"] ;
877 -> 878 ;
879 [label="x[10] <= 0.5\ngini = 0.045\nsamples = 130\nvalue = [127, 3]"] ;
878 -> 879 ;
880 [label="x[1] <= 34.5\ngini = 0.109\nsamples = 52\nvalue = [49, 3]"] ;
879 -> 880 ;
881 [label="x[0] <= 609.5\ngini = 0.051\nsamples = 38\nvalue = [37, 1]"] ;
880 -> 881 ;
882 [label="x[0] <= 602.5\ngini = 0.142\nsamples = 13\nvalue = [12, 1]"] ;
881 -> 882 ;
883 [label="gini = 0.0\nsamples = 12\nvalue = [12, 0]"] ;
882 -> 883 ;
884 [label="gini = 0.0\nsamples = 1\nvalue = [0, 1]"] ;
882 -> 884 ;
885 [label="gini = 0.0\nsamples = 25\nvalue = [25, 0]"] ;
881 -> 885 ;
886 [label="x[7] <= 2798.605\ngini = 0.245\nsamples = 14\nvalue = [12, 2]"] ;
880 -> 886 ;
887 [label="gini = 0.0\nsamples = 1\nvalue = [0, 1]"] ;
886 -> 887 ;
888 [label="x[2] <= 6.5\ngini = 0.142\nsamples = 13\nvalue = [12, 1]"] ;
886 -> 888 ;
889 [label="gini = 0.0\nsamples = 9\nvalue = [9, 0]"] ;
888 -> 889 ;
890 [label="x[0] <= 621.0\ngini = 0.375\nsamples = 4\nvalue = [3, 1]"] ;
888 -> 890 ;
891 [label="gini = 0.0\nsamples = 3\nvalue = [3, 0]"] ;
890 -> 891 ;
892 [label="gini = 0.0\nsamples = 1\nvalue = [0, 1]"] ;
890 -> 892 ;
893 [label="gini = 0.0\nsamples = 78\nvalue = [78, 0]"] ;
879 -> 893 ;
894 [label="gini = 0.0\nsamples = 1\nvalue = [0, 1]"] ;
878 -> 894 ;
895 [label="x[0] <= 847.5\ngini = 0.006\nsamples = 351\nvalue = [350, 1]"] ;
877 -> 895 ;
896 [label="gini = 0.0\nsamples = 338\nvalue = [338, 0]"] ;
895 -> 896 ;
897 [label="x[3] <= 33998.113\ngini = 0.142\nsamples = 13\nvalue = [12, 1]"] ;
895 -> 897 ;
898 [label="gini = 0.0\nsamples = 11\nvalue = [11, 0]"] ;
897 -> 898 ;
899 [label="x[5] <= 0.5\ngini = 0.5\nsamples = 2\nvalue = [1, 1]"] ;
897 -> 899 ;
900 [label="gini = 0.0\nsamples = 1\nvalue = [0, 1]"] ;
899 -> 900 ;
901 [label="gini = 0.0\nsamples = 1\nvalue = [1, 0]"] ;
899 -> 901 ;
902 [label="x[7] <= 89847.141\ngini = 0.129\nsamples = 72\nvalue = [67, 5]"] ;
876 -> 902 ;
903 [label="gini = 0.0\nsamples = 1\nvalue = [0, 1]"] ;
902 -> 903 ;
904 [label="x[7] <= 92574.441\ngini = 0.106\nsamples = 71\nvalue = [67, 4]"] ;
902 -> 904 ;
905 [label="x[7] <= 91740.801\ngini = 0.305\nsamples = 16\nvalue = [13, 3]"] ;
904 -> 905 ;
906 [label="gini = 0.0\nsamples = 9\nvalue = [9, 0]"] ;
905 -> 906 ;
907 [label="x[0] <= 587.0\ngini = 0.49\nsamples = 7\nvalue = [4, 3]"] ;
905 -> 907 ;
908 [label="gini = 0.0\nsamples = 4\nvalue = [4, 0]"] ;
907 -> 908 ;
909 [label="gini = 0.0\nsamples = 3\nvalue = [0, 3]"] ;
907 -> 909 ;
910 [label="x[7] <= 98619.914\ngini = 0.036\nsamples = 55\nvalue = [54, 1]"] ;
904 -> 910 ;
911 [label="gini = 0.0\nsamples = 42\nvalue = [42, 0]"] ;
910 -> 911 ;
912 [label="x[7] <= 98639.023\ngini = 0.142\nsamples = 13\nvalue = [12, 1]"] ;
910 -> 912 ;
913 [label="gini = 0.0\nsamples = 1\nvalue = [0, 1]"] ;
912 -> 913 ;
914 [label="gini = 0.0\nsamples = 12\nvalue = [12, 0]"] ;
912 -> 914 ;
915 [label="gini = 0.0\nsamples = 2\nvalue = [0, 2]"] ;
869 -> 915 ;
916 [label="x[0] <= 479.0\ngini = 0.014\nsamples = 562\nvalue = [558, 4]"] ;
868 -> 916 ;
917 [label="x[3] <= 78398.312\ngini = 0.159\nsamples = 23\nvalue = [21, 2]"] ;
916 -> 917 ;
918 [label="x[1] <= 27.5\ngini = 0.087\nsamples = 22\nvalue = [21, 1]"] ;
917 -> 918 ;
919 [label="x[10] <= 0.5\ngini = 0.245\nsamples = 7\nvalue = [6, 1]"] ;
918 -> 919 ;
920 [label="x[7] <= 165947.0\ngini = 0.5\nsamples = 2\nvalue = [1, 1]"] ;
919 -> 920 ;
921 [label="gini = 0.0\nsamples = 1\nvalue = [0, 1]"] ;
920 -> 921 ;
922 [label="gini = 0.0\nsamples = 1\nvalue = [1, 0]"] ;
920 -> 922 ;
923 [label="gini = 0.0\nsamples = 5\nvalue = [5, 0]"] ;
919 -> 923 ;
924 [label="gini = 0.0\nsamples = 15\nvalue = [15, 0]"] ;
918 -> 924 ;
925 [label="gini = 0.0\nsamples = 1\nvalue = [0, 1]"] ;
917 -> 925 ;
926 [label="x[7] <= 193668.195\ngini = 0.007\nsamples = 539\nvalue = [537, 2]"] ;
916 -> 926 ;
927 [label="x[1] <= 28.5\ngini = 0.004\nsamples = 495\nvalue = [494, 1]"] ;
926 -> 927 ;
928 [label="x[1] <= 27.5\ngini = 0.013\nsamples = 154\nvalue = [153, 1]"] ;
927 -> 928 ;
929 [label="gini = 0.0\nsamples = 124\nvalue = [124, 0]"] ;
928 -> 929 ;
930 [label="x[7] <= 144819.562\ngini = 0.064\nsamples = 30\nvalue = [29, 1]"] ;
928 -> 930 ;
931 [label="x[7] <= 140238.812\ngini = 0.153\nsamples = 12\nvalue = [11, 1]"] ;
930 -> 931 ;
932 [label="gini = 0.0\nsamples = 11\nvalue = [11, 0]"] ;
931 -> 932 ;
933 [label="gini = 0.0\nsamples = 1\nvalue = [0, 1]"] ;
931 -> 933 ;
934 [label="gini = 0.0\nsamples = 18\nvalue = [18, 0]"] ;
930 -> 934 ;
935 [label="gini = 0.0\nsamples = 341\nvalue = [341, 0]"] ;
927 -> 935 ;
936 [label="x[7] <= 194031.461\ngini = 0.044\nsamples = 44\nvalue = [43, 1]"] ;
926 -> 936 ;
937 [label="gini = 0.0\nsamples = 1\nvalue = [0, 1]"] ;
936 -> 937 ;
938 [label="gini = 0.0\nsamples = 43\nvalue = [43, 0]"] ;
936 -> 938 ;
939 [label="x[0] <= 681.5\ngini = 0.084\nsamples = 548\nvalue = [524, 24]"] ;
861 -> 939 ;
940 [label="x[7] <= 486.345\ngini = 0.047\nsamples = 330\nvalue = [322, 8]"] ;
939 -> 940 ;
941 [label="x[9] <= 0.5\ngini = 0.444\nsamples = 3\nvalue = [2, 1]"] ;
940 -> 941 ;
942 [label="gini = 0.0\nsamples = 2\nvalue = [2, 0]"] ;
941 -> 942 ;
943 [label="gini = 0.0\nsamples = 1\nvalue = [0, 1]"] ;
941 -> 943 ;
944 [label="x[2] <= 9.5\ngini = 0.042\nsamples = 327\nvalue = [320, 7]"] ;
940 -> 944 ;
945 [label="x[1] <= 38.5\ngini = 0.032\nsamples = 312\nvalue = [307, 5]"] ;
944 -> 945 ;
946 [label="gini = 0.0\nsamples = 132\nvalue = [132, 0]"] ;
945 -> 946 ;
947 [label="x[0] <= 605.5\ngini = 0.054\nsamples = 180\nvalue = [175, 5]"] ;
945 -> 947 ;
948 [label="x[7] <= 164568.75\ngini = 0.021\nsamples = 94\nvalue = [93, 1]"] ;
947 -> 948 ;
949 [label="gini = 0.0\nsamples = 80\nvalue = [80, 0]"] ;
948 -> 949 ;
950 [label="x[7] <= 167852.391\ngini = 0.133\nsamples = 14\nvalue = [13, 1]"] ;
948 -> 950 ;
951 [label="gini = 0.0\nsamples = 1\nvalue = [0, 1]"] ;
950 -> 951 ;
952 [label="gini = 0.0\nsamples = 13\nvalue = [13, 0]"] ;
950 -> 952 ;
953 [label="x[0] <= 611.5\ngini = 0.089\nsamples = 86\nvalue = [82, 4]"] ;
947 -> 953 ;
954 [label="x[6] <= 0.5\ngini = 0.444\nsamples = 6\nvalue = [4, 2]"] ;
953 -> 954 ;
955 [label="x[7] <= 168403.445\ngini = 0.444\nsamples = 3\nvalue = [1, 2]"] ;
954 -> 955 ;
956 [label="gini = 0.0\nsamples = 2\nvalue = [0, 2]"] ;
955 -> 956 ;
957 [label="gini = 0.0\nsamples = 1\nvalue = [1, 0]"] ;
955 -> 957 ;
958 [label="gini = 0.0\nsamples = 3\nvalue = [3, 0]"] ;
954 -> 958 ;
959 [label="x[9] <= 0.5\ngini = 0.049\nsamples = 80\nvalue = [78, 2]"] ;
953 -> 959 ;
960 [label="gini = 0.0\nsamples = 58\nvalue = [58, 0]"] ;
959 -> 960 ;
961 [label="x[1] <= 40.5\ngini = 0.165\nsamples = 22\nvalue = [20, 2]"] ;
959 -> 961 ;
962 [label="x[7] <= 147520.445\ngini = 0.32\nsamples = 10\nvalue = [8, 2]"] ;
961 -> 962 ;
963 [label="x[10] <= 0.5\ngini = 0.444\nsamples = 6\nvalue = [4, 2]"] ;
962 -> 963 ;
964 [label="x[7] <= 25148.034\ngini = 0.444\nsamples = 3\nvalue = [1, 2]"] ;
963 -> 964 ;
965 [label="gini = 0.0\nsamples = 1\nvalue = [1, 0]"] ;
964 -> 965 ;
966 [label="gini = 0.0\nsamples = 2\nvalue = [0, 2]"] ;
964 -> 966 ;
967 [label="gini = 0.0\nsamples = 3\nvalue = [3, 0]"] ;
963 -> 967 ;
968 [label="gini = 0.0\nsamples = 4\nvalue = [4, 0]"] ;
962 -> 968 ;
969 [label="gini = 0.0\nsamples = 12\nvalue = [12, 0]"] ;
961 -> 969 ;
970 [label="x[0] <= 598.0\ngini = 0.231\nsamples = 15\nvalue = [13, 2]"] ;
944 -> 970 ;
971 [label="gini = 0.0\nsamples = 7\nvalue = [7, 0]"] ;
970 -> 971 ;
972 [label="x[1] <= 41.5\ngini = 0.375\nsamples = 8\nvalue = [6, 2]"] ;
970 -> 972 ;
973 [label="x[7] <= 48082.594\ngini = 0.245\nsamples = 7\nvalue = [6, 1]"] ;
972 -> 973 ;
974 [label="x[1] <= 38.0\ngini = 0.5\nsamples = 2\nvalue = [1, 1]"] ;
973 -> 974 ;
975 [label="gini = 0.0\nsamples = 1\nvalue = [1, 0]"] ;
974 -> 975 ;
976 [label="gini = 0.0\nsamples = 1\nvalue = [0, 1]"] ;
974 -> 976 ;
977 [label="gini = 0.0\nsamples = 5\nvalue = [5, 0]"] ;
973 -> 977 ;
978 [label="gini = 0.0\nsamples = 1\nvalue = [0, 1]"] ;
972 -> 978 ;
979 [label="x[0] <= 682.5\ngini = 0.136\nsamples = 218\nvalue = [202, 16]"] ;
939 -> 979 ;
980 [label="x[2] <= 5.5\ngini = 0.5\nsamples = 2\nvalue = [1, 1]"] ;
979 -> 980 ;
981 [label="gini = 0.0\nsamples = 1\nvalue = [1, 0]"] ;
980 -> 981 ;
982 [label="gini = 0.0\nsamples = 1\nvalue = [0, 1]"] ;
980 -> 982 ;
983 [label="x[10] <= 0.5\ngini = 0.129\nsamples = 216\nvalue = [201, 15]"] ;
979 -> 983 ;
984 [label="x[2] <= 7.5\ngini = 0.201\nsamples = 106\nvalue = [94, 12]"] ;
983 -> 984 ;
985 [label="x[1] <= 40.5\ngini = 0.14\nsamples = 79\nvalue = [73, 6]"] ;
984 -> 985 ;
986 [label="x[0] <= 693.5\ngini = 0.088\nsamples = 65\nvalue = [62, 3]"] ;
985 -> 986 ;
987 [label="x[0] <= 687.5\ngini = 0.346\nsamples = 9\nvalue = [7, 2]"] ;
986 -> 987 ;
988 [label="gini = 0.0\nsamples = 5\nvalue = [5, 0]"] ;
987 -> 988 ;
989 [label="x[7] <= 80017.539\ngini = 0.5\nsamples = 4\nvalue = [2, 2]"] ;
987 -> 989 ;
990 [label="gini = 0.0\nsamples = 2\nvalue = [0, 2]"] ;
989 -> 990 ;
991 [label="gini = 0.0\nsamples = 2\nvalue = [2, 0]"] ;
989 -> 991 ;
992 [label="x[7] <= 182119.133\ngini = 0.035\nsamples = 56\nvalue = [55, 1]"] ;
986 -> 992 ;
993 [label="gini = 0.0\nsamples = 51\nvalue = [51, 0]"] ;
992 -> 993 ;
994 [label="x[5] <= 0.5\ngini = 0.32\nsamples = 5\nvalue = [4, 1]"] ;
992 -> 994 ;
995 [label="gini = 0.0\nsamples = 1\nvalue = [0, 1]"] ;
994 -> 995 ;
996 [label="gini = 0.0\nsamples = 4\nvalue = [4, 0]"] ;
994 -> 996 ;
997 [label="x[2] <= 5.5\ngini = 0.337\nsamples = 14\nvalue = [11, 3]"] ;
985 -> 997 ;
998 [label="x[7] <= 31168.475\ngini = 0.165\nsamples = 11\nvalue = [10, 1]"] ;
997 -> 998 ;
999 [label="x[9] <= 0.5\ngini = 0.5\nsamples = 2\nvalue = [1, 1]"] ;
998 -> 999 ;
1000 [label="gini = 0.0\nsamples = 1\nvalue = [0, 1]"] ;
999 -> 1000 ;
1001 [label="gini = 0.0\nsamples = 1\nvalue = [1, 0]"] ;
999 -> 1001 ;
1002 [label="gini = 0.0\nsamples = 9\nvalue = [9, 0]"] ;
998 -> 1002 ;
1003 [label="x[5] <= 0.5\ngini = 0.444\nsamples = 3\nvalue = [1, 2]"] ;
997 -> 1003 ;
1004 [label="gini = 0.0\nsamples = 1\nvalue = [1, 0]"] ;
1003 -> 1004 ;
1005 [label="gini = 0.0\nsamples = 2\nvalue = [0, 2]"] ;
1003 -> 1005 ;
1006 [label="x[2] <= 8.5\ngini = 0.346\nsamples = 27\nvalue = [21, 6]"] ;
984 -> 1006 ;
1007 [label="x[0] <= 705.5\ngini = 0.5\nsamples = 8\nvalue = [4, 4]"] ;
1006 -> 1007 ;
1008 [label="gini = 0.0\nsamples = 2\nvalue = [2, 0]"] ;
1007 -> 1008 ;
1009 [label="x[0] <= 760.0\ngini = 0.444\nsamples = 6\nvalue = [2, 4]"] ;
1007 -> 1009 ;
1010 [label="gini = 0.0\nsamples = 3\nvalue = [0, 3]"] ;
1009 -> 1010 ;
1011 [label="x[0] <= 802.5\ngini = 0.444\nsamples = 3\nvalue = [2, 1]"] ;
1009 -> 1011 ;
1012 [label="gini = 0.0\nsamples = 2\nvalue = [2, 0]"] ;
1011 -> 1012 ;
1013 [label="gini = 0.0\nsamples = 1\nvalue = [0, 1]"] ;
1011 -> 1013 ;
1014 [label="x[7] <= 15334.56\ngini = 0.188\nsamples = 19\nvalue = [17, 2]"] ;
1006 -> 1014 ;
1015 [label="gini = 0.0\nsamples = 1\nvalue = [0, 1]"] ;
1014 -> 1015 ;
1016 [label="x[7] <= 62119.285\ngini = 0.105\nsamples = 18\nvalue = [17, 1]"] ;
1014 -> 1016 ;
1017 [label="x[7] <= 51849.139\ngini = 0.245\nsamples = 7\nvalue = [6, 1]"] ;
1016 -> 1017 ;
1018 [label="gini = 0.0\nsamples = 6\nvalue = [6, 0]"] ;
1017 -> 1018 ;
1019 [label="gini = 0.0\nsamples = 1\nvalue = [0, 1]"] ;
1017 -> 1019 ;
1020 [label="gini = 0.0\nsamples = 11\nvalue = [11, 0]"] ;
1016 -> 1020 ;
1021 [label="x[0] <= 712.0\ngini = 0.053\nsamples = 110\nvalue = [107, 3]"] ;
983 -> 1021 ;
1022 [label="x[0] <= 706.5\ngini = 0.175\nsamples = 31\nvalue = [28, 3]"] ;
1021 -> 1022 ;
1023 [label="x[3] <= 34717.199\ngini = 0.083\nsamples = 23\nvalue = [22, 1]"] ;
1022 -> 1023 ;
1024 [label="gini = 0.0\nsamples = 20\nvalue = [20, 0]"] ;
1023 -> 1024 ;
1025 [label="x[7] <= 104547.395\ngini = 0.444\nsamples = 3\nvalue = [2, 1]"] ;
1023 -> 1025 ;
1026 [label="gini = 0.0\nsamples = 1\nvalue = [0, 1]"] ;
1025 -> 1026 ;
1027 [label="gini = 0.0\nsamples = 2\nvalue = [2, 0]"] ;
1025 -> 1027 ;
1028 [label="x[9] <= 0.5\ngini = 0.375\nsamples = 8\nvalue = [6, 2]"] ;
1022 -> 1028 ;
1029 [label="x[0] <= 708.0\ngini = 0.245\nsamples = 7\nvalue = [6, 1]"] ;
1028 -> 1029 ;
1030 [label="x[6] <= 0.5\ngini = 0.5\nsamples = 2\nvalue = [1, 1]"] ;
1029 -> 1030 ;
1031 [label="gini = 0.0\nsamples = 1\nvalue = [0, 1]"] ;
1030 -> 1031 ;
1032 [label="gini = 0.0\nsamples = 1\nvalue = [1, 0]"] ;
1030 -> 1032 ;
1033 [label="gini = 0.0\nsamples = 5\nvalue = [5, 0]"] ;
1029 -> 1033 ;
1034 [label="gini = 0.0\nsamples = 1\nvalue = [0, 1]"] ;
1028 -> 1034 ;
1035 [label="gini = 0.0\nsamples = 79\nvalue = [79, 0]"] ;
1021 -> 1035 ;
1036 [label="x[0] <= 377.5\ngini = 0.149\nsamples = 959\nvalue = [881, 78]"] ;
860 -> 1036 ;
1037 [label="gini = 0.0\nsamples = 1\nvalue = [0, 1]"] ;
1036 -> 1037 ;
1038 [label="x[3] <= 85381.066\ngini = 0.148\nsamples = 958\nvalue = [881, 77]"] ;
1036 -> 1038 ;
1039 [label="gini = 0.0\nsamples = 1\nvalue = [0, 1]"] ;
1038 -> 1039 ;
1040 [label="x[10] <= 0.5\ngini = 0.146\nsamples = 957\nvalue = [881, 76]"] ;
1038 -> 1040 ;
1041 [label="x[1] <= 31.5\ngini = 0.197\nsamples = 424\nvalue = [377, 47]"] ;
1040 -> 1041 ;
1042 [label="x[0] <= 478.0\ngini = 0.069\nsamples = 139\nvalue = [134, 5]"] ;
1041 -> 1042 ;
1043 [label="x[1] <= 24.5\ngini = 0.32\nsamples = 10\nvalue = [8, 2]"] ;
1042 -> 1043 ;
1044 [label="gini = 0.0\nsamples = 2\nvalue = [0, 2]"] ;
1043 -> 1044 ;
1045 [label="gini = 0.0\nsamples = 8\nvalue = [8, 0]"] ;
1043 -> 1045 ;
1046 [label="x[3] <= 123228.477\ngini = 0.045\nsamples = 129\nvalue = [126, 3]"] ;
1042 -> 1046 ;
1047 [label="x[3] <= 122703.754\ngini = 0.086\nsamples = 67\nvalue = [64, 3]"] ;
1046 -> 1047 ;
1048 [label="x[7] <= 17578.465\ngini = 0.059\nsamples = 66\nvalue = [64, 2]"] ;
1047 -> 1048 ;
1049 [label="x[7] <= 10908.065\ngini = 0.375\nsamples = 4\nvalue = [3, 1]"] ;
1048 -> 1049 ;
1050 [label="gini = 0.0\nsamples = 3\nvalue = [3, 0]"] ;
1049 -> 1050 ;
1051 [label="gini = 0.0\nsamples = 1\nvalue = [0, 1]"] ;
1049 -> 1051 ;
1052 [label="x[0] <= 551.0\ngini = 0.032\nsamples = 62\nvalue = [61, 1]"] ;
1048 -> 1052 ;
1053 [label="x[3] <= 116389.016\ngini = 0.219\nsamples = 8\nvalue = [7, 1]"] ;
1052 -> 1053 ;
1054 [label="gini = 0.0\nsamples = 7\nvalue = [7, 0]"] ;
1053 -> 1054 ;
1055 [label="gini = 0.0\nsamples = 1\nvalue = [0, 1]"] ;
1053 -> 1055 ;
1056 [label="gini = 0.0\nsamples = 54\nvalue = [54, 0]"] ;
1052 -> 1056 ;
1057 [label="gini = 0.0\nsamples = 1\nvalue = [0, 1]"] ;
1047 -> 1057 ;
1058 [label="gini = 0.0\nsamples = 62\nvalue = [62, 0]"] ;
1046 -> 1058 ;
1059 [label="x[3] <= 134547.008\ngini = 0.251\nsamples = 285\nvalue = [243.0, 42.0]"] ;
1041 -> 1059 ;
1060 [label="x[3] <= 128695.906\ngini = 0.295\nsamples = 189\nvalue = [155, 34]"] ;
1059 -> 1060 ;
1061 [label="x[6] <= 0.5\ngini = 0.252\nsamples = 162\nvalue = [138, 24]"] ;
1060 -> 1061 ;
1062 [label="x[0] <= 731.0\ngini = 0.323\nsamples = 79\nvalue = [63, 16]"] ;
1061 -> 1062 ;
1063 [label="x[0] <= 693.5\ngini = 0.383\nsamples = 58\nvalue = [43.0, 15.0]"] ;
1062 -> 1063 ;
1064 [label="x[0] <= 627.5\ngini = 0.338\nsamples = 51\nvalue = [40, 11]"] ;
1063 -> 1064 ;
1065 [label="x[0] <= 621.5\ngini = 0.422\nsamples = 33\nvalue = [23, 10]"] ;
1064 -> 1065 ;
1066 [label="x[3] <= 112938.75\ngini = 0.383\nsamples = 31\nvalue = [23, 8]"] ;
1065 -> 1066 ;
1067 [label="x[9] <= 0.5\ngini = 0.198\nsamples = 18\nvalue = [16, 2]"] ;
1066 -> 1067 ;
1068 [label="x[7] <= 33594.546\ngini = 0.111\nsamples = 17\nvalue = [16, 1]"] ;
1067 -> 1068 ;
1069 [label="x[5] <= 0.5\ngini = 0.5\nsamples = 2\nvalue = [1, 1]"] ;
1068 -> 1069 ;
1070 [label="gini = 0.0\nsamples = 1\nvalue = [0, 1]"] ;
1069 -> 1070 ;
1071 [label="gini = 0.0\nsamples = 1\nvalue = [1, 0]"] ;
1069 -> 1071 ;
1072 [label="gini = 0.0\nsamples = 15\nvalue = [15, 0]"] ;
1068 -> 1072 ;
1073 [label="gini = 0.0\nsamples = 1\nvalue = [0, 1]"] ;
1067 -> 1073 ;
1074 [label="x[3] <= 119653.426\ngini = 0.497\nsamples = 13\nvalue = [7, 6]"] ;
1066 -> 1074 ;
1075 [label="x[0] <= 581.0\ngini = 0.469\nsamples = 8\nvalue = [3, 5]"] ;
1074 -> 1075 ;
1076 [label="gini = 0.0\nsamples = 4\nvalue = [0, 4]"] ;
1075 -> 1076 ;
1077 [label="x[5] <= 0.5\ngini = 0.375\nsamples = 4\nvalue = [3, 1]"] ;
1075 -> 1077 ;
1078 [label="gini = 0.0\nsamples = 3\nvalue = [3, 0]"] ;
1077 -> 1078 ;
1079 [label="gini = 0.0\nsamples = 1\nvalue = [0, 1]"] ;
1077 -> 1079 ;
1080 [label="x[7] <= 35298.435\ngini = 0.32\nsamples = 5\nvalue = [4, 1]"] ;
1074 -> 1080 ;
1081 [label="gini = 0.0\nsamples = 1\nvalue = [0, 1]"] ;
1080 -> 1081 ;
1082 [label="gini = 0.0\nsamples = 4\nvalue = [4, 0]"] ;
1080 -> 1082 ;
1083 [label="gini = 0.0\nsamples = 2\nvalue = [0, 2]"] ;
1065 -> 1083 ;
1084 [label="x[3] <= 125585.672\ngini = 0.105\nsamples = 18\nvalue = [17, 1]"] ;
1064 -> 1084 ;
1085 [label="gini = 0.0\nsamples = 16\nvalue = [16, 0]"] ;
1084 -> 1085 ;
1086 [label="x[1] <= 36.5\ngini = 0.5\nsamples = 2\nvalue = [1, 1]"] ;
1084 -> 1086 ;
1087 [label="gini = 0.0\nsamples = 1\nvalue = [1, 0]"] ;
1086 -> 1087 ;
1088 [label="gini = 0.0\nsamples = 1\nvalue = [0, 1]"] ;
1086 -> 1088 ;
1089 [label="x[1] <= 35.5\ngini = 0.49\nsamples = 7\nvalue = [3, 4]"] ;
1063 -> 1089 ;
1090 [label="x[0] <= 722.5\ngini = 0.375\nsamples = 4\nvalue = [3, 1]"] ;
1089 -> 1090 ;
1091 [label="gini = 0.0\nsamples = 3\nvalue = [3, 0]"] ;
1090 -> 1091 ;
1092 [label="gini = 0.0\nsamples = 1\nvalue = [0, 1]"] ;
1090 -> 1092 ;
1093 [label="gini = 0.0\nsamples = 3\nvalue = [0, 3]"] ;
1089 -> 1093 ;
1094 [label="x[1] <= 32.5\ngini = 0.091\nsamples = 21\nvalue = [20, 1]"] ;
1062 -> 1094 ;
1095 [label="x[0] <= 774.5\ngini = 0.444\nsamples = 3\nvalue = [2, 1]"] ;
1094 -> 1095 ;
1096 [label="gini = 0.0\nsamples = 1\nvalue = [0, 1]"] ;
1095 -> 1096 ;
1097 [label="gini = 0.0\nsamples = 2\nvalue = [2, 0]"] ;
1095 -> 1097 ;
1098 [label="gini = 0.0\nsamples = 18\nvalue = [18, 0]"] ;
1094 -> 1098 ;
1099 [label="x[0] <= 773.5\ngini = 0.174\nsamples = 83\nvalue = [75, 8]"] ;
1061 -> 1099 ;
1100 [label="x[7] <= 192163.211\ngini = 0.124\nsamples = 75\nvalue = [70, 5]"] ;
1099 -> 1100 ;
1101 [label="x[0] <= 489.0\ngini = 0.102\nsamples = 74\nvalue = [70, 4]"] ;
1100 -> 1101 ;
1102 [label="x[3] <= 109923.082\ngini = 0.444\nsamples = 3\nvalue = [2, 1]"] ;
1101 -> 1102 ;
1103 [label="gini = 0.0\nsamples = 2\nvalue = [2, 0]"] ;
1102 -> 1103 ;
1104 [label="gini = 0.0\nsamples = 1\nvalue = [0, 1]"] ;
1102 -> 1104 ;
1105 [label="x[3] <= 111068.395\ngini = 0.081\nsamples = 71\nvalue = [68, 3]"] ;
1101 -> 1105 ;
1106 [label="x[3] <= 110837.648\ngini = 0.165\nsamples = 33\nvalue = [30, 3]"] ;
1105 -> 1106 ;
1107 [label="x[0] <= 614.5\ngini = 0.117\nsamples = 32\nvalue = [30, 2]"] ;
1106 -> 1107 ;
1108 [label="x[0] <= 599.5\ngini = 0.278\nsamples = 12\nvalue = [10, 2]"] ;
1107 -> 1108 ;
1109 [label="gini = 0.0\nsamples = 9\nvalue = [9, 0]"] ;
1108 -> 1109 ;
1110 [label="x[2] <= 7.0\ngini = 0.444\nsamples = 3\nvalue = [1, 2]"] ;
1108 -> 1110 ;
1111 [label="gini = 0.0\nsamples = 2\nvalue = [0, 2]"] ;
1110 -> 1111 ;
1112 [label="gini = 0.0\nsamples = 1\nvalue = [1, 0]"] ;
1110 -> 1112 ;
1113 [label="gini = 0.0\nsamples = 20\nvalue = [20, 0]"] ;
1107 -> 1113 ;
1114 [label="gini = 0.0\nsamples = 1\nvalue = [0, 1]"] ;
1106 -> 1114 ;
1115 [label="gini = 0.0\nsamples = 38\nvalue = [38, 0]"] ;
1105 -> 1115 ;
1116 [label="gini = 0.0\nsamples = 1\nvalue = [0, 1]"] ;
1100 -> 1116 ;
1117 [label="x[3] <= 123012.602\ngini = 0.469\nsamples = 8\nvalue = [5, 3]"] ;
1099 -> 1117 ;
1118 [label="x[2] <= 0.5\ngini = 0.278\nsamples = 6\nvalue = [5, 1]"] ;
1117 -> 1118 ;
1119 [label="gini = 0.0\nsamples = 1\nvalue = [0, 1]"] ;
1118 -> 1119 ;
1120 [label="gini = 0.0\nsamples = 5\nvalue = [5, 0]"] ;
1118 -> 1120 ;
1121 [label="gini = 0.0\nsamples = 2\nvalue = [0, 2]"] ;
1117 -> 1121 ;
1122 [label="x[3] <= 130282.031\ngini = 0.466\nsamples = 27\nvalue = [17, 10]"] ;
1060 -> 1122 ;
1123 [label="x[7] <= 177903.438\ngini = 0.463\nsamples = 11\nvalue = [4, 7]"] ;
1122 -> 1123 ;
1124 [label="gini = 0.0\nsamples = 7\nvalue = [0, 7]"] ;
1123 -> 1124 ;
1125 [label="gini = 0.0\nsamples = 4\nvalue = [4, 0]"] ;
1123 -> 1125 ;
1126 [label="x[2] <= 8.0\ngini = 0.305\nsamples = 16\nvalue = [13, 3]"] ;
1122 -> 1126 ;
1127 [label="x[0] <= 796.0\ngini = 0.231\nsamples = 15\nvalue = [13, 2]"] ;
1126 -> 1127 ;
1128 [label="x[1] <= 38.5\ngini = 0.133\nsamples = 14\nvalue = [13, 1]"] ;
1127 -> 1128 ;
1129 [label="gini = 0.0\nsamples = 12\nvalue = [12, 0]"] ;
1128 -> 1129 ;
1130 [label="x[2] <= 6.5\ngini = 0.5\nsamples = 2\nvalue = [1, 1]"] ;
1128 -> 1130 ;
1131 [label="gini = 0.0\nsamples = 1\nvalue = [0, 1]"] ;
1130 -> 1131 ;
1132 [label="gini = 0.0\nsamples = 1\nvalue = [1, 0]"] ;
1130 -> 1132 ;
1133 [label="gini = 0.0\nsamples = 1\nvalue = [0, 1]"] ;
1127 -> 1133 ;
1134 [label="gini = 0.0\nsamples = 1\nvalue = [0, 1]"] ;
1126 -> 1134 ;
1135 [label="x[8] <= 0.5\ngini = 0.153\nsamples = 96\nvalue = [88, 8]"] ;
1059 -> 1135 ;
1136 [label="x[7] <= 172711.055\ngini = 0.258\nsamples = 46\nvalue = [39, 7]"] ;
1135 -> 1136 ;
1137 [label="x[1] <= 41.5\ngini = 0.18\nsamples = 40\nvalue = [36, 4]"] ;
1136 -> 1137 ;
1138 [label="x[0] <= 842.0\ngini = 0.142\nsamples = 39\nvalue = [36, 3]"] ;
1137 -> 1138 ;
1139 [label="x[7] <= 133637.875\ngini = 0.102\nsamples = 37\nvalue = [35, 2]"] ;
1138 -> 1139 ;
1140 [label="gini = 0.0\nsamples = 29\nvalue = [29, 0]"] ;
1139 -> 1140 ;
1141 [label="x[7] <= 142691.164\ngini = 0.375\nsamples = 8\nvalue = [6, 2]"] ;
1139 -> 1141 ;
1142 [label="gini = 0.0\nsamples = 2\nvalue = [0, 2]"] ;
1141 -> 1142 ;
1143 [label="gini = 0.0\nsamples = 6\nvalue = [6, 0]"] ;
1141 -> 1143 ;
1144 [label="x[0] <= 848.0\ngini = 0.5\nsamples = 2\nvalue = [1, 1]"] ;
1138 -> 1144 ;
1145 [label="gini = 0.0\nsamples = 1\nvalue = [0, 1]"] ;
1144 -> 1145 ;
1146 [label="gini = 0.0\nsamples = 1\nvalue = [1, 0]"] ;
1144 -> 1146 ;
1147 [label="gini = 0.0\nsamples = 1\nvalue = [0, 1]"] ;
1137 -> 1147 ;
1148 [label="x[2] <= 3.0\ngini = 0.5\nsamples = 6\nvalue = [3, 3]"] ;
1136 -> 1148 ;
1149 [label="gini = 0.0\nsamples = 3\nvalue = [3, 0]"] ;
1148 -> 1149 ;
1150 [label="gini = 0.0\nsamples = 3\nvalue = [0, 3]"] ;
1148 -> 1150 ;
1151 [label="x[0] <= 582.5\ngini = 0.039\nsamples = 50\nvalue = [49, 1]"] ;
1135 -> 1151 ;
1152 [label="x[0] <= 579.5\ngini = 0.219\nsamples = 8\nvalue = [7, 1]"] ;
1151 -> 1152 ;
1153 [label="gini = 0.0\nsamples = 7\nvalue = [7, 0]"] ;
1152 -> 1153 ;
1154 [label="gini = 0.0\nsamples = 1\nvalue = [0, 1]"] ;
1152 -> 1154 ;
1155 [label="gini = 0.0\nsamples = 42\nvalue = [42, 0]"] ;
1151 -> 1155 ;
1156 [label="x[3] <= 202176.852\ngini = 0.103\nsamples = 533\nvalue = [504, 29]"] ;
1040 -> 1156 ;
1157 [label="x[6] <= 0.5\ngini = 0.097\nsamples = 530\nvalue = [503, 27]"] ;
1156 -> 1157 ;
1158 [label="x[3] <= 88920.723\ngini = 0.145\nsamples = 254\nvalue = [234, 20]"] ;
1157 -> 1158 ;
1159 [label="x[3] <= 87006.102\ngini = 0.48\nsamples = 5\nvalue = [3, 2]"] ;
1158 -> 1159 ;
1160 [label="gini = 0.0\nsamples = 3\nvalue = [3, 0]"] ;
1159 -> 1160 ;
1161 [label="gini = 0.0\nsamples = 2\nvalue = [0, 2]"] ;
1159 -> 1161 ;
1162 [label="x[1] <= 35.5\ngini = 0.134\nsamples = 249\nvalue = [231, 18]"] ;
1158 -> 1162 ;
1163 [label="x[7] <= 158720.156\ngini = 0.067\nsamples = 143\nvalue = [138, 5]"] ;
1162 -> 1163 ;
1164 [label="x[7] <= 13444.435\ngini = 0.033\nsamples = 120\nvalue = [118, 2]"] ;
1163 -> 1164 ;
1165 [label="x[3] <= 156092.125\ngini = 0.198\nsamples = 9\nvalue = [8, 1]"] ;
1164 -> 1165 ;
1166 [label="gini = 0.0\nsamples = 8\nvalue = [8, 0]"] ;
1165 -> 1166 ;
1167 [label="gini = 0.0\nsamples = 1\nvalue = [0, 1]"] ;
1165 -> 1167 ;
1168 [label="x[1] <= 24.5\ngini = 0.018\nsamples = 111\nvalue = [110, 1]"] ;
1164 -> 1168 ;
1169 [label="x[3] <= 103640.988\ngini = 0.153\nsamples = 12\nvalue = [11, 1]"] ;
1168 -> 1169 ;
1170 [label="x[7] <= 62924.236\ngini = 0.5\nsamples = 2\nvalue = [1, 1]"] ;
1169 -> 1170 ;
1171 [label="gini = 0.0\nsamples = 1\nvalue = [0, 1]"] ;
1170 -> 1171 ;
1172 [label="gini = 0.0\nsamples = 1\nvalue = [1, 0]"] ;
1170 -> 1172 ;
1173 [label="gini = 0.0\nsamples = 10\nvalue = [10, 0]"] ;
1169 -> 1173 ;
1174 [label="gini = 0.0\nsamples = 99\nvalue = [99, 0]"] ;
1168 -> 1174 ;
1175 [label="x[7] <= 167067.531\ngini = 0.227\nsamples = 23\nvalue = [20, 3]"] ;
1163 -> 1175 ;
1176 [label="x[1] <= 34.5\ngini = 0.444\nsamples = 3\nvalue = [1, 2]"] ;
1175 -> 1176 ;
1177 [label="gini = 0.0\nsamples = 2\nvalue = [0, 2]"] ;
1176 -> 1177 ;
1178 [label="gini = 0.0\nsamples = 1\nvalue = [1, 0]"] ;
1176 -> 1178 ;
1179 [label="x[1] <= 25.0\ngini = 0.095\nsamples = 20\nvalue = [19, 1]"] ;
1175 -> 1179 ;
1180 [label="x[2] <= 7.0\ngini = 0.5\nsamples = 2\nvalue = [1, 1]"] ;
1179 -> 1180 ;
1181 [label="gini = 0.0\nsamples = 1\nvalue = [1, 0]"] ;
1180 -> 1181 ;
1182 [label="gini = 0.0\nsamples = 1\nvalue = [0, 1]"] ;
1180 -> 1182 ;
1183 [label="gini = 0.0\nsamples = 18\nvalue = [18, 0]"] ;
1179 -> 1183 ;
1184 [label="x[3] <= 114163.141\ngini = 0.215\nsamples = 106\nvalue = [93, 13]"] ;
1162 -> 1184 ;
1185 [label="x[2] <= 1.5\ngini = 0.091\nsamples = 42\nvalue = [40, 2]"] ;
1184 -> 1185 ;
1186 [label="x[0] <= 710.5\ngini = 0.375\nsamples = 4\nvalue = [3, 1]"] ;
1185 -> 1186 ;
1187 [label="gini = 0.0\nsamples = 3\nvalue = [3, 0]"] ;
1186 -> 1187 ;
1188 [label="gini = 0.0\nsamples = 1\nvalue = [0, 1]"] ;
1186 -> 1188 ;
1189 [label="x[9] <= 0.5\ngini = 0.051\nsamples = 38\nvalue = [37, 1]"] ;
1185 -> 1189 ;
1190 [label="gini = 0.0\nsamples = 33\nvalue = [33, 0]"] ;
1189 -> 1190 ;
1191 [label="x[0] <= 567.0\ngini = 0.32\nsamples = 5\nvalue = [4, 1]"] ;
1189 -> 1191 ;
1192 [label="gini = 0.0\nsamples = 1\nvalue = [0, 1]"] ;
1191 -> 1192 ;
1193 [label="gini = 0.0\nsamples = 4\nvalue = [4, 0]"] ;
1191 -> 1193 ;
1194 [label="x[3] <= 114768.387\ngini = 0.285\nsamples = 64\nvalue = [53, 11]"] ;
1184 -> 1194 ;
1195 [label="gini = 0.0\nsamples = 1\nvalue = [0, 1]"] ;
1194 -> 1195 ;
1196 [label="x[3] <= 118324.059\ngini = 0.267\nsamples = 63\nvalue = [53, 10]"] ;
1194 -> 1196 ;
1197 [label="x[1] <= 36.5\ngini = 0.444\nsamples = 9\nvalue = [6, 3]"] ;
1196 -> 1197 ;
1198 [label="gini = 0.0\nsamples = 3\nvalue = [3, 0]"] ;
1197 -> 1198 ;
1199 [label="x[5] <= 0.5\ngini = 0.5\nsamples = 6\nvalue = [3, 3]"] ;
1197 -> 1199 ;
1200 [label="gini = 0.0\nsamples = 2\nvalue = [2, 0]"] ;
1199 -> 1200 ;
1201 [label="x[3] <= 115330.09\ngini = 0.375\nsamples = 4\nvalue = [1, 3]"] ;
1199 -> 1201 ;
1202 [label="gini = 0.0\nsamples = 1\nvalue = [1, 0]"] ;
1201 -> 1202 ;
1203 [label="gini = 0.0\nsamples = 3\nvalue = [0, 3]"] ;
1201 -> 1203 ;
1204 [label="x[5] <= 0.5\ngini = 0.226\nsamples = 54\nvalue = [47, 7]"] ;
1196 -> 1204 ;
1205 [label="x[3] <= 175974.812\ngini = 0.43\nsamples = 16\nvalue = [11, 5]"] ;
1204 -> 1205 ;
1206 [label="x[7] <= 42026.096\ngini = 0.391\nsamples = 15\nvalue = [11, 4]"] ;
1205 -> 1206 ;
1207 [label="gini = 0.0\nsamples = 1\nvalue = [0, 1]"] ;
1206 -> 1207 ;
1208 [label="x[3] <= 144922.898\ngini = 0.337\nsamples = 14\nvalue = [11, 3]"] ;
1206 -> 1208 ;
1209 [label="x[3] <= 141614.109\ngini = 0.469\nsamples = 8\nvalue = [5, 3]"] ;
1208 -> 1209 ;
1210 [label="x[7] <= 174550.859\ngini = 0.408\nsamples = 7\nvalue = [5, 2]"] ;
1209 -> 1210 ;
1211 [label="x[0] <= 609.0\ngini = 0.48\nsamples = 5\nvalue = [3, 2]"] ;
1210 -> 1211 ;
1212 [label="gini = 0.0\nsamples = 2\nvalue = [2, 0]"] ;
1211 -> 1212 ;
1213 [label="x[3] <= 121236.113\ngini = 0.444\nsamples = 3\nvalue = [1, 2]"] ;
1211 -> 1213 ;
1214 [label="gini = 0.0\nsamples = 1\nvalue = [1, 0]"] ;
1213 -> 1214 ;
1215 [label="gini = 0.0\nsamples = 2\nvalue = [0, 2]"] ;
1213 -> 1215 ;
1216 [label="gini = 0.0\nsamples = 2\nvalue = [2, 0]"] ;
1210 -> 1216 ;
1217 [label="gini = 0.0\nsamples = 1\nvalue = [0, 1]"] ;
1209 -> 1217 ;
1218 [label="gini = 0.0\nsamples = 6\nvalue = [6, 0]"] ;
1208 -> 1218 ;
1219 [label="gini = 0.0\nsamples = 1\nvalue = [0, 1]"] ;
1205 -> 1219 ;
1220 [label="x[2] <= 8.5\ngini = 0.1\nsamples = 38\nvalue = [36, 2]"] ;
1204 -> 1220 ;
1221 [label="x[0] <= 752.0\ngini = 0.057\nsamples = 34\nvalue = [33, 1]"] ;
1220 -> 1221 ;
1222 [label="gini = 0.0\nsamples = 30\nvalue = [30, 0]"] ;
1221 -> 1222 ;
1223 [label="x[0] <= 765.0\ngini = 0.375\nsamples = 4\nvalue = [3, 1]"] ;
1221 -> 1223 ;
1224 [label="gini = 0.0\nsamples = 1\nvalue = [0, 1]"] ;
1223 -> 1224 ;
1225 [label="gini = 0.0\nsamples = 3\nvalue = [3, 0]"] ;
1223 -> 1225 ;
